svm_type c_svc
kernel_type linear
nr_class 2
total_sv 216
rho 0.574001
label 1 -1
nr_sv 113 103
SV
1 1:0 2:0 3:1 4:0 5:1 6:0 7:0 8:0 9:0 10:1 11:0 12:0 13:0 14:0 15:1 16:0 17:0 18:0 19:1 20:0 21:0 22:0 23:0 24:1 25:1 26:0 27:0 28:0 29:0 30:0 31:1 32:0 33:0 34:0 35:1 36:0 37:1 38:0 39:0 40:0 41:1 42:0 43:0 44:0 45:0 46:1 47:0 48:0 49:1 50:0 51:0 52:0 53:0 54:0 55:0 56:1 57:1 58:0 59:0 60:0 61:0 62:0 63:1 64:0 65:0 66:0 67:0 68:1 69:0 70:1 71:0 72:0 73:0 74:0 75:1 76:0 77:0 78:0 79:1 80:0 
0.5924977399020817 1:0 2:0 3:0 4:1 5:0 6:0 7:1 8:0 9:0 10:0 11:1 12:0 13:0 14:0 15:0 16:1 17:0 18:0 19:1 20:0 21:0 22:0 23:1 24:0 25:1 26:0 27:0 28:0 29:1 30:0 31:0 32:0 33:0 34:0 35:0 36:1 37:0 38:0 39:1 40:0 41:0 42:0 43:1 44:0 45:0 46:0 47:1 48:0 49:0 50:1 51:0 52:0 53:1 54:0 55:0 56:0 57:0 58:0 59:0 60:1 61:1 62:0 63:0 64:0 65:1 66:0 67:0 68:0 69:0 70:0 71:1 72:0 73:1 74:0 75:0 76:0 77:0 78:0 79:1 80:0 
1 1:0 2:0 3:1 4:0 5:0 6:0 7:1 8:0 9:0 10:0 11:1 12:0 13:0 14:1 15:0 16:0 17:0 18:0 19:0 20:1 21:0 22:1 23:0 24:0 25:0 26:0 27:1 28:0 29:1 30:0 31:0 32:0 33:0 34:0 35:0 36:1 37:1 38:0 39:0 40:0 41:0 42:0 43:1 44:0 45:1 46:0 47:0 48:0 49:0 50:1 51:0 52:0 53:0 54:0 55:0 56:1 57:0 58:0 59:1 60:0 61:0 62:0 63:0 64:1 65:0 66:0 67:1 68:0 69:0 70:0 71:1 72:0 73:0 74:0 75:0 76:1 77:0 78:0 79:0 80:1 
0.9018264292050043 1:1 2:0 3:0 4:0 5:0 6:0 7:0 8:1 9:1 10:0 11:0 12:0 13:0 14:0 15:0 16:1 17:1 18:0 19:0 20:0 21:0 22:0 23:1 24:0 25:0 26:0 27:1 28:0 29:1 30:0 31:0 32:0 33:0 34:0 35:0 36:1 37:0 38:0 39:0 40:1 41:1 42:0 43:0 44:0 45:0 46:0 47:0 48:1 49:0 50:1 51:0 52:0 53:0 54:0 55:0 56:1 57:0 58:0 59:0 60:1 61:0 62:0 63:0 64:1 65:1 66:0 67:0 68:0 69:0 70:0 71:0 72:1 73:0 74:0 75:0 76:1 77:0 78:0 79:1 80:0 
1 1:1 2:0 3:0 4:0 5:0 6:0 7:0 8:1 9:0 10:1 11:0 12:0 13:0 14:1 15:0 16:0 17:1 18:0 19:0 20:0 21:1 22:0 23:0 24:0 25:0 26:0 27:1 28:0 29:0 30:1 31:0 32:0 33:0 34:0 35:0 36:1 37:0 38:1 39:0 40:0 41:0 42:0 43:0 44:1 45:0 46:0 47:1 48:0 49:1 50:0 51:0 52:0 53:0 54:1 55:0 56:0 57:0 58:0 59:1 60:0 61:0 62:1 63:0 64:0 65:1 66:0 67:0 68:0 69:0 70:1 71:0 72:0 73:0 74:0 75:1 76:0 77:0 78:0 79:0 80:1 
1 1:0 2:0 3:1 4:0 5:0 6:0 7:0 8:1 9:1 10:0 11:0 12:0 13:1 14:0 15:0 16:0 17:0 18:0 19:0 20:1 21:0 22:1 23:0 24:0 25:0 26:1 27:0 28:0 29:0 30:0 31:1 32:0 33:0 34:0 35:1 36:0 37:0 38:0 39:0 40:1 41:1 42:0 43:0 44:0 45:0 46:0 47:1 48:0 49:1 50:0 51:0 52:0 53:0 54:1 55:0 56:0 57:0 58:0 59:0 60:1 61:0 62:0 63:0 64:1 65:0 66:0 67:1 68:0 69:0 70:1 71:0 72:0 73:0 74:1 75:0 76:0 77:1 78:0 79:0 80:0 
1 1:1 2:0 3:0 4:0 5:0 6:1 7:0 8:0 9:0 10:1 11:0 12:0 13:0 14:0 15:1 16:0 17:0 18:1 19:0 20:0 21:0 22:0 23:1 24:0 25:0 26:0 27:0 28:1 29:0 30:1 31:0 32:0 33:0 34:0 35:1 36:0 37:1 38:0 39:0 40:0 41:0 42:0 43:1 44:0 45:1 46:0 47:0 48:0 49:0 50:1 51:0 52:0 53:0 54:0 55:0 56:1 57:0 58:0 59:1 60:0 61:0 62:0 63:1 64:0 65:0 66:0 67:0 68:1 69:0 70:0 71:1 72:0 73:1 74:0 75:0 76:0 77:0 78:0 79:0 80:1 
1 1:0 2:0 3:0 4:1 5:1 6:0 7:0 8:0 9:1 10:0 11:0 12:0 13:0 14:1 15:0 16:0 17:0 18:0 19:1 20:0 21:0 22:0 23:1 24:0 25:1 26:0 27:0 28:0 29:0 30:0 31:0 32:1 33:0 34:0 35:1 36:0 37:1 38:0 39:0 40:0 41:0 42:0 43:0 44:1 45:0 46:1 47:0 48:0 49:0 50:0 51:1 52:0 53:0 54:0 55:0 56:1 57:0 58:0 59:1 60:0 61:0 62:0 63:1 64:0 65:0 66:1 67:0 68:0 69:0 70:1 71:0 72:0 73:0 74:0 75:1 76:0 77:0 78:0 79:0 80:1 
1 1:0 2:1 3:0 4:0 5:0 6:0 7:0 8:1 9:0 10:0 11:1 12:0 13:0 14:0 15:1 16:0 17:0 18:0 19:1 20:0 21:0 22:0 23:1 24:0 25:1 26:0 27:0 28:0 29:0 30:0 31:0 32:1 33:0 34:1 35:0 36:0 37:0 38:0 39:0 40:1 41:0 42:0 43:1 44:0 45:1 46:0 47:0 48:0 49:0 50:0 51:0 52:1 53:0 54:0 55:0 56:1 57:0 58:0 59:1 60:0 61:0 62:0 63:0 64:1 65:0 66:1 67:0 68:0 69:0 70:0 71:0 72:1 73:0 74:0 75:1 76:0 77:0 78:0 79:1 80:0 
1 1:0 2:0 3:0 4:1 5:0 6:0 7:1 8:0 9:0 10:0 11:0 12:1 13:0 14:0 15:1 16:0 17:0 18:0 19:1 20:0 21:0 22:1 23:0 24:0 25:0 26:0 27:0 28:1 29:0 30:0 31:1 32:0 33:0 34:0 35:1 36:0 37:0 38:0 39:1 40:0 41:0 42:0 43:1 44:0 45:0 46:0 47:0 48:1 49:1 50:0 51:0 52:0 53:0 54:0 55:1 56:0 57:0 58:0 59:0 60:1 61:0 62:0 63:0 64:1 65:0 66:0 67:1 68:0 69:1 70:0 71:0 72:0 73:0 74:0 75:0 76:1 77:0 78:0 79:1 80:0 
0.5778529699000253 1:0 2:1 3:0 4:0 5:1 6:0 7:0 8:0 9:0 10:0 11:1 12:0 13:0 14:1 15:0 16:0 17:0 18:1 19:0 20:0 21:0 22:1 23:0 24:0 25:0 26:0 27:1 28:0 29:1 30:0 31:0 32:0 33:0 34:1 35:0 36:0 37:0 38:0 39:1 40:0 41:0 42:1 43:0 44:0 45:1 46:0 47:0 48:0 49:0 50:0 51:1 52:0 53:0 54:1 55:0 56:0 57:0 58:1 59:0 60:0 61:1 62:0 63:0 64:0 65:0 66:1 67:0 68:0 69:0 70:0 71:0 72:1 73:1 74:0 75:0 76:0 77:1 78:0 79:0 80:0 
0.6951513449674234 1:0 2:0 3:0 4:1 5:1 6:0 7:0 8:0 9:0 10:0 11:0 12:1 13:0 14:1 15:0 16:0 17:0 18:0 19:1 20:0 21:0 22:0 23:1 24:0 25:0 26:0 27:0 28:1 29:0 30:0 31:0 32:1 33:1 34:0 35:0 36:0 37:0 38:0 39:0 40:1 41:0 42:0 43:1 44:0 45:0 46:1 47:0 48:0 49:1 50:0 51:0 52:0 53:0 54:0 55:1 56:0 57:0 58:0 59:0 60:1 61:1 62:0 63:0 64:0 65:0 66:0 67:1 68:0 69:0 70:0 71:1 72:0 73:0 74:0 75:0 76:1 77:1 78:0 79:0 80:0 
1 1:0 2:0 3:1 4:0 5:0 6:1 7:0 8:0 9:0 10:1 11:0 12:0 13:1 14:0 15:0 16:0 17:0 18:0 19:0 20:1 21:1 22:0 23:0 24:0 25:0 26:0 27:1 28:0 29:1 30:0 31:0 32:0 33:0 34:0 35:0 36:1 37:1 38:0 39:0 40:0 41:0 42:0 43:1 44:0 45:0 46:0 47:1 48:0 49:0 50:0 51:1 52:0 53:0 54:0 55:1 56:0 57:1 58:0 59:0 60:0 61:0 62:0 63:1 64:0 65:0 66:1 67:0 68:0 69:0 70:1 71:0 72:0 73:1 74:0 75:0 76:0 77:0 78:0 79:0 80:1 
0.3042900448033352 1:0 2:0 3:1 4:0 5:0 6:0 7:0 8:1 9:0 10:0 11:1 12:0 13:0 14:0 15:0 16:1 17:0 18:0 19:1 20:0 21:0 22:0 23:1 24:0 25:0 26:0 27:0 28:1 29:0 30:0 31:1 32:0 33:0 34:1 35:0 36:0 37:0 38:0 39:0 40:1 41:0 42:0 43:1 44:0 45:0 46:0 47:0 48:1 49:0 50:0 51:1 52:0 53:0 54:0 55:1 56:0 57:0 58:0 59:0 60:1 61:0 62:1 63:0 64:0 65:0 66:0 67:1 68:0 69:1 70:0 71:0 72:0 73:0 74:0 75:0 76:1 77:1 78:0 79:0 80:0 
1 1:1 2:0 3:0 4:0 5:0 6:1 7:0 8:0 9:0 10:0 11:0 12:1 13:1 14:0 15:0 16:0 17:0 18:1 19:0 20:0 21:0 22:1 23:0 24:0 25:0 26:0 27:1 28:0 29:0 30:1 31:0 32:0 33:0 34:1 35:0 36:0 37:0 38:1 39:0 40:0 41:0 42:0 43:1 44:0 45:1 46:0 47:0 48:0 49:0 50:0 51:1 52:0 53:0 54:1 55:0 56:0 57:1 58:0 59:0 60:0 61:0 62:1 63:0 64:0 65:0 66:0 67:0 68:1 69:1 70:0 71:0 72:0 73:0 74:0 75:1 76:0 77:0 78:0 79:0 80:1 
1 1:1 2:0 3:0 4:0 5:1 6:0 7:0 8:0 9:0 10:1 11:0 12:0 13:0 14:0 15:1 16:0 17:0 18:0 19:1 20:0 21:0 22:0 23:0 24:1 25:0 26:0 27:0 28:1 29:1 30:0 31:0 32:0 33:0 34:0 35:0 36:1 37:0 38:1 39:0 40:0 41:1 42:0 43:0 44:0 45:0 46:1 47:0 48:0 49:0 50:1 51:0 52:0 53:1 54:0 55:0 56:0 57:0 58:0 59:1 60:0 61:0 62:0 63:0 64:1 65:1 66:0 67:0 68:0 69:0 70:0 71:0 72:1 73:0 74:0 75:1 76:0 77:0 78:0 79:1 80:0 
0.2411196485360282 1:1 2:0 3:0 4:0 5:0 6:1 7:0 8:0 9:1 10:0 11:0 12:0 13:0 14:0 15:0 16:1 17:0 18:1 19:0 20:0 21:1 22:0 23:0 24:0 25:0 26:0 27:0 28:1 29:0 30:1 31:0 32:0 33:0 34:0 35:0 36:1 37:0 38:1 39:0 40:0 41:0 42:1 43:0 44:0 45:0 46:0 47:0 48:1 49:1 50:0 51:0 52:0 53:0 54:1 55:0 56:0 57:1 58:0 59:0 60:0 61:0 62:0 63:0 64:1 65:0 66:0 67:1 68:0 69:0 70:0 71:1 72:0 73:0 74:0 75:0 76:1 77:1 78:0 79:0 80:0 
1 1:0 2:0 3:1 4:0 5:0 6:1 7:0 8:0 9:0 10:0 11:0 12:1 13:1 14:0 15:0 16:0 17:0 18:0 19:1 20:0 21:1 22:0 23:0 24:0 25:1 26:0 27:0 28:0 29:0 30:0 31:1 32:0 33:0 34:0 35:1 36:0 37:0 38:0 39:1 40:0 41:1 42:0 43:0 44:0 45:1 46:0 47:0 48:0 49:1 50:0 51:0 52:0 53:0 54:0 55:0 56:1 57:1 58:0 59:0 60:0 61:1 62:0 63:0 64:0 65:0 66:0 67:0 68:1 69:1 70:0 71:0 72:0 73:0 74:1 75:0 76:0 77:0 78:0 79:0 80:1 
1 1:0 2:0 3:0 4:1 5:1 6:0 7:0 8:0 9:1 10:0 11:0 12:0 13:0 14:0 15:1 16:0 17:1 18:0 19:0 20:0 21:0 22:0 23:1 24:0 25:0 26:1 27:0 28:0 29:0 30:0 31:1 32:0 33:1 34:0 35:0 36:0 37:0 38:1 39:0 40:0 41:0 42:0 43:0 44:1 45:0 46:0 47:1 48:0 49:0 50:1 51:0 52:0 53:1 54:0 55:0 56:0 57:0 58:0 59:1 60:0 61:0 62:0 63:0 64:1 65:0 66:0 67:1 68:0 69:0 70:0 71:0 72:1 73:0 74:1 75:0 76:0 77:1 78:0 79:0 80:0 
1 1:0 2:0 3:1 4:0 5:0 6:0 7:1 8:0 9:0 10:1 11:0 12:0 13:0 14:1 15:0 16:0 17:1 18:0 19:0 20:0 21:1 22:0 23:0 24:0 25:0 26:0 27:0 28:1 29:0 30:1 31:0 32:0 33:1 34:0 35:0 36:0 37:1 38:0 39:0 40:0 41:0 42:0 43:1 44:0 45:0 46:0 47:1 48:0 49:0 50:1 51:0 52:0 53:0 54:1 55:0 56:0 57:0 58:0 59:0 60:1 61:0 62:1 63:0 64:0 65:0 66:1 67:0 68:0 69:0 70:0 71:1 72:0 73:1 74:0 75:0 76:0 77:1 78:0 79:0 80:0 
0.4550018928259091 1:0 2:1 3:0 4:0 5:1 6:0 7:0 8:0 9:0 10:1 11:0 12:0 13:0 14:0 15:0 16:1 17:0 18:1 19:0 20:0 21:1 22:0 23:0 24:0 25:0 26:0 27:1 28:0 29:0 30:0 31:1 32:0 33:1 34:0 35:0 36:0 37:0 38:1 39:0 40:0 41:0 42:0 43:0 44:1 45:0 46:0 47:1 48:0 49:1 50:0 51:0 52:0 53:1 54:0 55:0 56:0 57:0 58:0 59:0 60:1 61:1 62:0 63:0 64:0 65:0 66:1 67:0 68:0 69:1 70:0 71:0 72:0 73:0 74:0 75:0 76:1 77:1 78:0 79:0 80:0 
0.2999639623936542 1:0 2:1 3:0 4:0 5:1 6:0 7:0 8:0 9:0 10:0 11:0 12:1 13:0 14:0 15:1 16:0 17:0 18:0 19:1 20:0 21:0 22:0 23:0 24:1 25:1 26:0 27:0 28:0 29:0 30:0 31:1 32:0 33:0 34:0 35:0 36:1 37:1 38:0 39:0 40:0 41:0 42:1 43:0 44:0 45:0 46:0 47:0 48:1 49:0 50:0 51:1 52:0 53:1 54:0 55:0 56:0 57:0 58:0 59:0 60:1 61:0 62:0 63:0 64:1 65:0 66:1 67:0 68:0 69:1 70:0 71:0 72:0 73:0 74:0 75:1 76:0 77:1 78:0 79:0 80:0 
1 1:0 2:0 3:0 4:1 5:0 6:1 7:0 8:0 9:1 10:0 11:0 12:0 13:0 14:0 15:0 16:1 17:0 18:0 19:0 20:1 21:0 22:0 23:1 24:0 25:1 26:0 27:0 28:0 29:0 30:1 31:0 32:0 33:0 34:0 35:1 36:0 37:0 38:1 39:0 40:0 41:0 42:0 43:1 44:0 45:1 46:0 47:0 48:0 49:1 50:0 51:0 52:0 53:1 54:0 55:0 56:0 57:0 58:0 59:1 60:0 61:0 62:1 63:0 64:0 65:1 66:0 67:0 68:0 69:0 70:0 71:1 72:0 73:0 74:0 75:1 76:0 77:0 78:0 79:1 80:0 
0.04870516231314653 1:0 2:1 3:0 4:0 5:1 6:0 7:0 8:0 9:0 10:0 11:0 12:1 13:0 14:1 15:0 16:0 17:1 18:0 19:0 20:0 21:0 22:0 23:0 24:1 25:0 26:0 27:1 28:0 29:1 30:0 31:0 32:0 33:0 34:1 35:0 36:0 37:1 38:0 39:0 40:0 41:0 42:0 43:0 44:1 45:0 46:0 47:1 48:0 49:0 50:0 51:1 52:0 53:0 54:0 55:0 56:1 57:1 58:0 59:0 60:0 61:1 62:0 63:0 64:0 65:0 66:0 67:1 68:0 69:1 70:0 71:0 72:0 73:0 74:0 75:1 76:0 77:0 78:0 79:0 80:1 
1 1:1 2:0 3:0 4:0 5:0 6:0 7:0 8:1 9:0 10:1 11:0 12:0 13:0 14:1 15:0 16:0 17:0 18:0 19:1 20:0 21:1 22:0 23:0 24:0 25:0 26:0 27:0 28:1 29:0 30:0 31:0 32:1 33:0 34:1 35:0 36:0 37:0 38:0 39:0 40:1 41:0 42:1 43:0 44:0 45:0 46:0 47:1 48:0 49:0 50:1 51:0 52:0 53:0 54:0 55:1 56:0 57:0 58:1 59:0 60:0 61:0 62:0 63:1 64:0 65:0 66:1 67:0 68:0 69:0 70:1 71:0 72:0 73:0 74:0 75:1 76:0 77:1 78:0 79:0 80:0 
1 1:1 2:0 3:0 4:0 5:0 6:0 7:1 8:0 9:0 10:0 11:0 12:1 13:0 14:1 15:0 16:0 17:1 18:0 19:0 20:0 21:0 22:0 23:0 24:1 25:0 26:0 27:1 28:0 29:1 30:0 31:0 32:0 33:0 34:0 35:0 36:1 37:0 38:0 39:1 40:0 41:0 42:0 43:1 44:0 45:0 46:1 47:0 48:0 49:0 50:0 51:0 52:1 53:0 54:1 55:0 56:0 57:1 58:0 59:0 60:0 61:0 62:0 63:0 64:1 65:0 66:1 67:0 68:0 69:1 70:0 71:0 72:0 73:0 74:0 75:0 76:1 77:0 78:1 79:0 80:0 
1 1:1 2:0 3:0 4:0 5:1 6:0 7:0 8:0 9:0 10:1 11:0 12:0 13:1 14:0 15:0 16:0 17:0 18:1 19:0 20:0 21:0 22:1 23:0 24:0 25:1 26:0 27:0 28:0 29:0 30:1 31:0 32:0 33:0 34:0 35:1 36:0 37:1 38:0 39:0 40:0 41:0 42:0 43:0 44:1 45:0 46:1 47:0 48:0 49:1 50:0 51:0 52:0 53:0 54:0 55:1 56:0 57:1 58:0 59:0 60:0 61:1 62:0 63:0 64:0 65:0 66:1 67:0 68:0 69:1 70:0 71:0 72:0 73:1 74:0 75:0 76:0 77:0 78:0 79:0 80:1 
1 1:1 2:0 3:0 4:0 5:1 6:0 7:0 8:0 9:1 10:0 11:0 12:0 13:0 14:0 15:0 16:1 17:0 18:1 19:0 20:0 21:0 22:0 23:1 24:0 25:0 26:1 27:0 28:0 29:0 30:0 31:0 32:1 33:1 34:0 35:0 36:0 37:1 38:0 39:0 40:0 41:0 42:1 43:0 44:0 45:0 46:0 47:1 48:0 49:0 50:1 51:0 52:0 53:0 54:0 55:0 56:1 57:0 58:1 59:0 60:0 61:1 62:0 63:0 64:0 65:0 66:0 67:0 68:1 69:0 70:1 71:0 72:0 73:0 74:0 75:1 76:0 77:1 78:0 79:0 80:0 
1 1:0 2:0 3:1 4:0 5:1 6:0 7:0 8:0 9:0 10:1 11:0 12:0 13:1 14:0 15:0 16:0 17:0 18:1 19:0 20:0 21:0 22:0 23:1 24:0 25:0 26:0 27:0 28:1 29:1 30:0 31:0 32:0 33:0 34:1 35:0 36:0 37:1 38:0 39:0 40:0 41:0 42:0 43:0 44:1 45:0 46:0 47:1 48:0 49:1 50:0 51:0 52:0 53:0 54:0 55:0 56:1 57:1 58:0 59:0 60:0 61:0 62:1 63:0 64:0 65:0 66:0 67:0 68:1 69:0 70:0 71:0 72:1 73:0 74:0 75:0 76:1 77:1 78:0 79:0 80:0 
1 1:0 2:1 3:0 4:0 5:0 6:0 7:1 8:0 9:0 10:1 11:0 12:0 13:0 14:0 15:1 16:0 17:1 18:0 19:0 20:0 21:0 22:0 23:0 24:1 25:1 26:0 27:0 28:0 29:0 30:0 31:1 32:0 33:0 34:1 35:0 36:0 37:1 38:0 39:0 40:0 41:0 42:0 43:1 44:0 45:1 46:0 47:0 48:0 49:0 50:0 51:1 52:0 53:0 54:1 55:0 56:0 57:0 58:0 59:0 60:1 61:0 62:0 63:0 64:1 65:0 66:1 67:0 68:0 69:1 70:0 71:0 72:0 73:0 74:0 75:1 76:0 77:0 78:0 79:1 80:0 
0.8169421801464561 1:0 2:1 3:0 4:0 5:1 6:0 7:0 8:0 9:0 10:1 11:0 12:0 13:1 14:0 15:0 16:0 17:1 18:0 19:0 20:0 21:1 22:0 23:0 24:0 25:1 26:0 27:0 28:0 29:0 30:1 31:0 32:0 33:0 34:0 35:0 36:1 37:0 38:1 39:0 40:0 41:0 42:0 43:0 44:1 45:1 46:0 47:0 48:0 49:0 50:0 51:1 52:0 53:0 54:0 55:1 56:0 57:1 58:0 59:0 60:0 61:1 62:0 63:0 64:0 65:0 66:0 67:1 68:0 69:0 70:0 71:0 72:1 73:0 74:0 75:1 76:0 77:0 78:0 79:0 80:1 
1 1:1 2:0 3:0 4:0 5:0 6:1 7:0 8:0 9:0 10:0 11:1 12:0 13:0 14:0 15:0 16:1 17:1 18:0 19:0 20:0 21:0 22:0 23:0 24:1 25:0 26:0 27:1 28:0 29:0 30:1 31:0 32:0 33:1 34:0 35:0 36:0 37:1 38:0 39:0 40:0 41:0 42:0 43:0 44:1 45:1 46:0 47:0 48:0 49:0 50:0 51:1 52:0 53:0 54:0 55:0 56:1 57:0 58:0 59:1 60:0 61:1 62:0 63:0 64:0 65:0 66:1 67:0 68:0 69:0 70:0 71:0 72:1 73:0 74:0 75:1 76:0 77:0 78:0 79:1 80:0 
1 1:0 2:1 3:0 4:0 5:1 6:0 7:0 8:0 9:0 10:0 11:0 12:1 13:0 14:0 15:0 16:1 17:1 18:0 19:0 20:0 21:0 22:1 23:0 24:0 25:1 26:0 27:0 28:0 29:0 30:0 31:1 32:0 33:1 34:0 35:0 36:0 37:0 38:0 39:0 40:1 41:1 42:0 43:0 44:0 45:1 46:0 47:0 48:0 49:0 50:1 51:0 52:0 53:0 54:0 55:0 56:1 57:0 58:1 59:0 60:0 61:1 62:0 63:0 64:0 65:0 66:0 67:0 68:1 69:0 70:1 71:0 72:0 73:0 74:0 75:0 76:1 77:1 78:0 79:0 80:0 
1 1:0 2:0 3:1 4:0 5:1 6:0 7:0 8:0 9:0 10:0 11:0 12:1 13:1 14:0 15:0 16:0 17:0 18:0 19:0 20:1 21:0 22:0 23:1 24:0 25:0 26:0 27:0 28:1 29:0 30:1 31:0 32:0 33:0 34:0 35:0 36:1 37:0 38:0 39:1 40:0 41:0 42:0 43:1 44:0 45:1 46:0 47:0 48:0 49:0 50:0 51:1 52:0 53:0 54:1 55:0 56:0 57:0 58:0 59:0 60:1 61:0 62:0 63:1 64:0 65:0 66:0 67:1 68:0 69:0 70:1 71:0 72:0 73:1 74:0 75:0 76:0 77:0 78:0 79:0 80:1 
1 1:0 2:1 3:0 4:0 5:0 6:0 7:0 8:1 9:0 10:0 11:0 12:1 13:0 14:0 15:1 16:0 17:0 18:0 19:0 20:1 21:0 22:0 23:1 24:0 25:0 26:0 27:1 28:0 29:0 30:0 31:0 32:1 33:1 34:0 35:0 36:0 37:0 38:0 39:1 40:0 41:0 42:0 43:1 44:0 45:0 46:0 47:1 48:0 49:0 50:0 51:1 52:0 53:0 54:0 55:0 56:1 57:0 58:0 59:0 60:1 61:0 62:1 63:0 64:0 65:1 66:0 67:0 68:0 69:0 70:0 71:1 72:0 73:1 74:0 75:0 76:0 77:0 78:1 79:0 80:0 
1 1:0 2:0 3:1 4:0 5:1 6:0 7:0 8:0 9:0 10:0 11:1 12:0 13:0 14:0 15:0 16:1 17:0 18:0 19:1 20:0 21:0 22:0 23:0 24:1 25:1 26:0 27:0 28:0 29:1 30:0 31:0 32:0 33:1 34:0 35:0 36:0 37:0 38:0 39:0 40:1 41:0 42:0 43:1 44:0 45:0 46:0 47:0 48:1 49:0 50:0 51:1 52:0 53:1 54:0 55:0 56:0 57:0 58:1 59:0 60:0 61:0 62:0 63:0 64:1 65:0 66:0 67:1 68:0 69:0 70:1 71:0 72:0 73:1 74:0 75:0 76:0 77:0 78:0 79:0 80:1 
1 1:0 2:0 3:1 4:0 5:0 6:1 7:0 8:0 9:1 10:0 11:0 12:0 13:1 14:0 15:0 16:0 17:0 18:0 19:1 20:0 21:0 22:1 23:0 24:0 25:1 26:0 27:0 28:0 29:0 30:0 31:0 32:1 33:0 34:0 35:1 36:0 37:0 38:0 39:1 40:0 41:1 42:0 43:0 44:0 45:0 46:0 47:1 48:0 49:1 50:0 51:0 52:0 53:0 54:0 55:1 56:0 57:1 58:0 59:0 60:0 61:0 62:0 63:0 64:1 65:0 66:0 67:0 68:1 69:0 70:0 71:1 72:0 73:1 74:0 75:0 76:0 77:0 78:0 79:1 80:0 
0.007449575522687907 1:1 2:0 3:0 4:0 5:0 6:0 7:0 8:1 9:0 10:0 11:1 12:0 13:0 14:0 15:1 16:0 17:1 18:0 19:0 20:0 21:0 22:0 23:1 24:0 25:0 26:0 27:1 28:0 29:1 30:0 31:0 32:0 33:0 34:0 35:1 36:0 37:0 38:0 39:0 40:1 41:0 42:0 43:1 44:0 45:0 46:1 47:0 48:0 49:0 50:0 51:1 52:0 53:0 54:1 55:0 56:0 57:0 58:0 59:0 60:1 61:1 62:0 63:0 64:0 65:0 66:1 67:0 68:0 69:0 70:0 71:0 72:1 73:0 74:0 75:0 76:1 77:1 78:0 79:0 80:0 
1 1:0 2:0 3:1 4:0 5:0 6:0 7:0 8:1 9:0 10:0 11:0 12:1 13:1 14:0 15:0 16:0 17:0 18:0 19:1 20:0 21:0 22:1 23:0 24:0 25:0 26:0 27:1 28:0 29:1 30:0 31:0 32:0 33:0 34:0 35:1 36:0 37:0 38:1 39:0 40:0 41:1 42:0 43:0 44:0 45:0 46:0 47:0 48:1 49:0 50:1 51:0 52:0 53:0 54:0 55:0 56:1 57:0 58:1 59:0 60:0 61:0 62:0 63:1 64:0 65:0 66:1 67:0 68:0 69:1 70:0 71:0 72:0 73:0 74:1 75:0 76:0 77:0 78:0 79:1 80:0 
1 1:1 2:0 3:0 4:0 5:0 6:1 7:0 8:0 9:0 10:0 11:1 12:0 13:0 14:1 15:0 16:0 17:1 18:0 19:0 20:0 21:1 22:0 23:0 24:0 25:0 26:0 27:0 28:1 29:0 30:1 31:0 32:0 33:0 34:0 35:0 36:1 37:0 38:0 39:0 40:1 41:0 42:1 43:0 44:0 45:0 46:0 47:1 48:0 49:0 50:1 51:0 52:0 53:0 54:0 55:0 56:1 57:0 58:0 59:0 60:1 61:0 62:1 63:0 64:0 65:1 66:0 67:0 68:0 69:0 70:0 71:0 72:1 73:1 74:0 75:0 76:0 77:0 78:0 79:1 80:0 
1 1:0 2:1 3:0 4:0 5:0 6:0 7:1 8:0 9:0 10:1 11:0 12:0 13:1 14:0 15:0 16:0 17:1 18:0 19:0 20:0 21:0 22:0 23:0 24:1 25:0 26:0 27:1 28:0 29:1 30:0 31:0 32:0 33:0 34:1 35:0 36:0 37:0 38:0 39:1 40:0 41:0 42:0 43:1 44:0 45:0 46:1 47:0 48:0 49:1 50:0 51:0 52:0 53:0 54:0 55:1 56:0 57:0 58:1 59:0 60:0 61:0 62:0 63:1 64:0 65:0 66:0 67:0 68:1 69:0 70:0 71:1 72:0 73:0 74:0 75:0 76:1 77:0 78:0 79:0 80:1 
1 1:0 2:1 3:0 4:0 5:0 6:0 7:1 8:0 9:0 10:1 11:0 12:0 13:0 14:1 15:0 16:0 17:1 18:0 19:0 20:0 21:0 22:1 23:0 24:0 25:0 26:0 27:0 28:1 29:1 30:0 31:0 32:0 33:0 34:1 35:0 36:0 37:0 38:0 39:1 40:0 41:1 42:0 43:0 44:0 45:0 46:0 47:0 48:1 49:0 50:0 51:0 52:1 53:0 54:0 55:1 56:0 57:0 58:0 59:0 60:1 61:1 62:0 63:0 64:0 65:0 66:0 67:1 68:0 69:1 70:0 71:0 72:0 73:0 74:0 75:0 76:1 77:0 78:0 79:1 80:0 
1 1:0 2:1 3:0 4:0 5:0 6:0 7:0 8:1 9:0 10:0 11:0 12:1 13:0 14:1 15:0 16:0 17:0 18:0 19:1 20:0 21:0 22:1 23:0 24:0 25:0 26:1 27:0 28:0 29:0 30:0 31:1 32:0 33:0 34:1 35:0 36:0 37:1 38:0 39:0 40:0 41:0 42:0 43:1 44:0 45:0 46:1 47:0 48:0 49:1 50:0 51:0 52:0 53:0 54:1 55:0 56:0 57:0 58:0 59:0 60:1 61:0 62:0 63:1 64:0 65:0 66:0 67:0 68:1 69:0 70:0 71:1 72:0 73:0 74:1 75:0 76:0 77:1 78:0 79:0 80:0 
1 1:1 2:0 3:0 4:0 5:0 6:0 7:1 8:0 9:1 10:0 11:0 12:0 13:0 14:0 15:1 16:0 17:1 18:0 19:0 20:0 21:0 22:0 23:0 24:1 25:1 26:0 27:0 28:0 29:0 30:1 31:0 32:0 33:1 34:0 35:0 36:0 37:0 38:0 39:1 40:0 41:0 42:1 43:0 44:0 45:0 46:1 47:0 48:0 49:0 50:0 51:1 52:0 53:0 54:1 55:0 56:0 57:1 58:0 59:0 60:0 61:1 62:0 63:0 64:0 65:0 66:0 67:1 68:0 69:1 70:0 71:0 72:0 73:0 74:1 75:0 76:0 77:1 78:0 79:0 80:0 
1 1:0 2:1 3:0 4:0 5:1 6:0 7:0 8:0 9:1 10:0 11:0 12:0 13:0 14:1 15:0 16:0 17:0 18:0 19:1 20:0 21:0 22:0 23:1 24:0 25:0 26:1 27:0 28:0 29:1 30:0 31:0 32:0 33:0 34:1 35:0 36:0 37:0 38:1 39:0 40:0 41:0 42:0 43:1 44:0 45:0 46:0 47:0 48:1 49:0 50:0 51:0 52:1 53:0 54:0 55:0 56:1 57:0 58:1 59:0 60:0 61:0 62:0 63:0 64:1 65:0 66:0 67:1 68:0 69:0 70:0 71:0 72:1 73:0 74:0 75:0 76:1 77:1 78:0 79:0 80:0 
0.7217244901463187 1:0 2:0 3:0 4:1 5:1 6:0 7:0 8:0 9:0 10:0 11:0 12:1 13:0 14:0 15:0 16:1 17:0 18:0 19:1 20:0 21:0 22:1 23:0 24:0 25:0 26:1 27:0 28:0 29:1 30:0 31:0 32:0 33:0 34:0 35:1 36:0 37:0 38:0 39:1 40:0 41:0 42:1 43:0 44:0 45:0 46:1 47:0 48:0 49:1 50:0 51:0 52:0 53:0 54:0 55:1 56:0 57:0 58:1 59:0 60:0 61:0 62:0 63:1 64:0 65:0 66:0 67:1 68:0 69:0 70:1 71:0 72:0 73:0 74:1 75:0 76:0 77:1 78:0 79:0 80:0 
1 1:1 2:0 3:0 4:0 5:1 6:0 7:0 8:0 9:0 10:1 11:0 12:0 13:0 14:0 15:1 16:0 17:0 18:1 19:0 20:0 21:0 22:0 23:1 24:0 25:0 26:1 27:0 28:0 29:0 30:0 31:1 32:0 33:0 34:0 35:1 36:0 37:0 38:0 39:1 40:0 41:1 42:0 43:0 44:0 45:0 46:0 47:1 48:0 49:1 50:0 51:0 52:0 53:0 54:0 55:0 56:1 57:1 58:0 59:0 60:0 61:1 62:0 63:0 64:0 65:0 66:0 67:1 68:0 69:1 70:0 71:0 72:0 73:0 74:0 75:1 76:0 77:0 78:1 79:0 80:0 
1 1:1 2:0 3:0 4:0 5:1 6:0 7:0 8:0 9:0 10:0 11:1 12:0 13:0 14:0 15:1 16:0 17:0 18:0 19:0 20:1 21:1 22:0 23:0 24:0 25:0 26:0 27:1 28:0 29:0 30:0 31:0 32:1 33:0 34:0 35:0 36:1 37:0 38:0 39:1 40:0 41:0 42:1 43:0 44:0 45:0 46:0 47:0 48:1 49:0 50:0 51:1 52:0 53:1 54:0 55:0 56:0 57:1 58:0 59:0 60:0 61:0 62:0 63:1 64:0 65:1 66:0 67:0 68:0 69:0 70:1 71:0 72:0 73:1 74:0 75:0 76:0 77:0 78:1 79:0 80:0 
0.9072539864833855 1:0 2:0 3:1 4:0 5:0 6:0 7:0 8:1 9:0 10:0 11:1 12:0 13:0 14:1 15:0 16:0 17:1 18:0 19:0 20:0 21:0 22:1 23:0 24:0 25:0 26:0 27:1 28:0 29:0 30:0 31:0 32:1 33:0 34:1 35:0 36:0 37:0 38:1 39:0 40:0 41:1 42:0 43:0 44:0 45:0 46:0 47:1 48:0 49:1 50:0 51:0 52:0 53:0 54:0 55:0 56:1 57:1 58:0 59:0 60:0 61:0 62:0 63:1 64:0 65:0 66:0 67:1 68:0 69:0 70:0 71:1 72:0 73:1 74:0 75:0 76:0 77:0 78:0 79:0 80:1 
0.6720798014532398 1:0 2:1 3:0 4:0 5:0 6:1 7:0 8:0 9:1 10:0 11:0 12:0 13:0 14:1 15:0 16:0 17:1 18:0 19:0 20:0 21:1 22:0 23:0 24:0 25:0 26:1 27:0 28:0 29:0 30:0 31:1 32:0 33:0 34:0 35:0 36:1 37:0 38:0 39:0 40:1 41:0 42:1 43:0 44:0 45:1 46:0 47:0 48:0 49:0 50:1 51:0 52:0 53:0 54:0 55:1 56:0 57:0 58:0 59:0 60:1 61:0 62:0 63:1 64:0 65:0 66:1 67:0 68:0 69:0 70:0 71:1 72:0 73:0 74:0 75:1 76:0 77:1 78:0 79:0 80:0 
1 1:0 2:0 3:1 4:0 5:0 6:0 7:0 8:1 9:0 10:0 11:0 12:1 13:0 14:1 15:0 16:0 17:0 18:1 19:0 20:0 21:0 22:0 23:0 24:1 25:0 26:0 27:1 28:0 29:0 30:0 31:0 32:1 33:0 34:0 35:1 36:0 37:1 38:0 39:0 40:0 41:0 42:0 43:1 44:0 45:0 46:1 47:0 48:0 49:1 50:0 51:0 52:0 53:1 54:0 55:0 56:0 57:0 58:0 59:1 60:0 61:0 62:0 63:0 64:1 65:0 66:0 67:1 68:0 69:0 70:0 71:1 72:0 73:0 74:0 75:0 76:1 77:1 78:0 79:0 80:0 
1 1:0 2:0 3:1 4:0 5:1 6:0 7:0 8:0 9:0 10:1 11:0 12:0 13:0 14:0 15:1 16:0 17:0 18:0 19:0 20:1 21:0 22:0 23:0 24:1 25:0 26:0 27:1 28:0 29:1 30:0 31:0 32:0 33:0 34:0 35:0 36:1 37:1 38:0 39:0 40:0 41:0 42:0 43:0 44:1 45:0 46:0 47:0 48:1 49:0 50:0 51:1 52:0 53:0 54:0 55:0 56:1 57:0 58:0 59:1 60:0 61:0 62:0 63:1 64:0 65:0 66:1 67:0 68:0 69:0 70:1 71:0 72:0 73:0 74:0 75:1 76:0 77:0 78:0 79:0 80:1 
1 1:0 2:1 3:0 4:0 5:0 6:0 7:1 8:0 9:0 10:1 11:0 12:0 13:0 14:0 15:1 16:0 17:1 18:0 19:0 20:0 21:1 22:0 23:0 24:0 25:0 26:1 27:0 28:0 29:0 30:0 31:0 32:1 33:0 34:0 35:1 36:0 37:0 38:0 39:1 40:0 41:1 42:0 43:0 44:0 45:0 46:1 47:0 48:0 49:1 50:0 51:0 52:0 53:0 54:0 55:1 56:0 57:0 58:0 59:1 60:0 61:1 62:0 63:0 64:0 65:1 66:0 67:0 68:0 69:1 70:0 71:0 72:0 73:0 74:0 75:0 76:1 77:0 78:0 79:0 80:1 
0.8453805549309958 1:0 2:0 3:1 4:0 5:0 6:1 7:0 8:0 9:0 10:1 11:0 12:0 13:0 14:0 15:1 16:0 17:0 18:1 19:0 20:0 21:0 22:0 23:0 24:1 25:0 26:0 27:1 28:0 29:0 30:1 31:0 32:0 33:0 34:0 35:0 36:1 37:0 38:1 39:0 40:0 41:1 42:0 43:0 44:0 45:0 46:0 47:0 48:1 49:1 50:0 51:0 52:0 53:0 54:0 55:0 56:1 57:1 58:0 59:0 60:0 61:0 62:0 63:1 64:0 65:1 66:0 67:0 68:0 69:0 70:0 71:0 72:1 73:0 74:1 75:0 76:0 77:1 78:0 79:0 80:0 
0.4038015080866353 1:0 2:0 3:1 4:0 5:0 6:0 7:1 8:0 9:0 10:0 11:0 12:1 13:0 14:1 15:0 16:0 17:0 18:0 19:1 20:0 21:1 22:0 23:0 24:0 25:0 26:1 27:0 28:0 29:0 30:0 31:1 32:0 33:0 34:0 35:1 36:0 37:1 38:0 39:0 40:0 41:0 42:0 43:0 44:1 45:1 46:0 47:0 48:0 49:0 50:0 51:1 52:0 53:0 54:1 55:0 56:0 57:0 58:0 59:0 60:1 61:0 62:1 63:0 64:0 65:0 66:0 67:0 68:1 69:0 70:0 71:1 72:0 73:0 74:1 75:0 76:0 77:1 78:0 79:0 80:0 
1 1:0 2:0 3:0 4:1 5:0 6:0 7:0 8:1 9:1 10:0 11:0 12:0 13:0 14:0 15:1 16:0 17:0 18:1 19:0 20:0 21:0 22:0 23:1 24:0 25:0 26:0 27:0 28:1 29:1 30:0 31:0 32:0 33:0 34:0 35:1 36:0 37:0 38:0 39:1 40:0 41:0 42:1 43:0 44:0 45:0 46:0 47:1 48:0 49:1 50:0 51:0 52:0 53:0 54:1 55:0 56:0 57:0 58:1 59:0 60:0 61:0 62:0 63:0 64:1 65:0 66:0 67:0 68:1 69:0 70:0 71:0 72:1 73:0 74:0 75:1 76:0 77:1 78:0 79:0 80:0 
1 1:0 2:0 3:0 4:1 5:0 6:0 7:1 8:0 9:1 10:0 11:0 12:0 13:1 14:0 15:0 16:0 17:0 18:0 19:0 20:1 21:0 22:1 23:0 24:0 25:0 26:0 27:0 28:1 29:0 30:0 31:0 32:1 33:0 34:0 35:0 36:1 37:0 38:1 39:0 40:0 41:1 42:0 43:0 44:0 45:1 46:0 47:0 48:0 49:0 50:0 51:1 52:0 53:0 54:0 55:1 56:0 57:0 58:0 59:0 60:1 61:0 62:0 63:1 64:0 65:0 66:0 67:1 68:0 69:0 70:0 71:0 72:1 73:0 74:0 75:1 76:0 77:0 78:0 79:1 80:0 
1 1:1 2:0 3:0 4:0 5:0 6:1 7:0 8:0 9:0 10:0 11:0 12:1 13:0 14:1 15:0 16:0 17:0 18:1 19:0 20:0 21:1 22:0 23:0 24:0 25:1 26:0 27:0 28:0 29:0 30:1 31:0 32:0 33:0 34:1 35:0 36:0 37:0 38:0 39:1 40:0 41:0 42:1 43:0 44:0 45:0 46:0 47:1 48:0 49:0 50:0 51:0 52:1 53:1 54:0 55:0 56:0 57:0 58:0 59:1 60:0 61:0 62:0 63:0 64:1 65:0 66:1 67:0 68:0 69:0 70:0 71:1 72:0 73:1 74:0 75:0 76:0 77:0 78:0 79:1 80:0 
1 1:0 2:0 3:1 4:0 5:0 6:0 7:0 8:1 9:1 10:0 11:0 12:0 13:0 14:0 15:0 16:1 17:0 18:0 19:1 20:0 21:0 22:0 23:0 24:1 25:0 26:0 27:1 28:0 29:1 30:0 31:0 32:0 33:0 34:1 35:0 36:0 37:0 38:1 39:0 40:0 41:1 42:0 43:0 44:0 45:1 46:0 47:0 48:0 49:0 50:0 51:1 52:0 53:0 54:1 55:0 56:0 57:0 58:0 59:0 60:1 61:0 62:0 63:1 64:0 65:0 66:0 67:0 68:1 69:1 70:0 71:0 72:0 73:1 74:0 75:0 76:0 77:0 78:0 79:1 80:0 
1 1:0 2:1 3:0 4:0 5:0 6:0 7:0 8:1 9:0 10:1 11:0 12:0 13:0 14:1 15:0 16:0 17:0 18:0 19:1 20:0 21:1 22:0 23:0 24:0 25:0 26:1 27:0 28:0 29:0 30:0 31:0 32:1 33:0 34:0 35:1 36:0 37:0 38:0 39:1 40:0 41:0 42:0 43:0 44:1 45:0 46:0 47:0 48:1 49:0 50:0 51:1 52:0 53:0 54:1 55:0 56:0 57:0 58:0 59:0 60:1 61:0 62:1 63:0 64:0 65:0 66:0 67:0 68:1 69:1 70:0 71:0 72:0 73:0 74:0 75:1 76:0 77:0 78:0 79:0 80:1 
0.915040559525337 1:0 2:0 3:1 4:0 5:0 6:1 7:0 8:0 9:0 10:0 11:0 12:1 13:0 14:0 15:1 16:0 17:0 18:0 19:0 20:1 21:0 22:0 23:1 24:0 25:0 26:0 27:1 28:0 29:1 30:0 31:0 32:0 33:0 34:0 35:0 36:1 37:0 38:1 39:0 40:0 41:0 42:1 43:0 44:0 45:0 46:0 47:0 48:1 49:0 50:0 51:1 52:0 53:0 54:0 55:1 56:0 57:0 58:1 59:0 60:0 61:0 62:0 63:1 64:0 65:0 66:0 67:1 68:0 69:0 70:0 71:0 72:1 73:1 74:0 75:0 76:0 77:0 78:0 79:0 80:1 
0.1384786236867591 1:0 2:0 3:0 4:1 5:0 6:1 7:0 8:0 9:0 10:0 11:1 12:0 13:0 14:0 15:0 16:1 17:0 18:0 19:0 20:1 21:0 22:1 23:0 24:0 25:0 26:0 27:0 28:1 29:1 30:0 31:0 32:0 33:0 34:1 35:0 36:0 37:1 38:0 39:0 40:0 41:0 42:1 43:0 44:0 45:0 46:0 47:1 48:0 49:0 50:0 51:0 52:1 53:0 54:1 55:0 56:0 57:1 58:0 59:0 60:0 61:1 62:0 63:0 64:0 65:0 66:0 67:1 68:0 69:0 70:0 71:0 72:1 73:0 74:1 75:0 76:0 77:1 78:0 79:0 80:0 
1 1:1 2:0 3:0 4:0 5:0 6:1 7:0 8:0 9:0 10:0 11:0 12:1 13:1 14:0 15:0 16:0 17:0 18:0 19:0 20:1 21:0 22:0 23:0 24:1 25:1 26:0 27:0 28:0 29:1 30:0 31:0 32:0 33:0 34:0 35:1 36:0 37:1 38:0 39:0 40:0 41:1 42:0 43:0 44:0 45:0 46:0 47:1 48:0 49:0 50:1 51:0 52:0 53:0 54:0 55:1 56:0 57:1 58:0 59:0 60:0 61:1 62:0 63:0 64:0 65:0 66:0 67:0 68:1 69:1 70:0 71:0 72:0 73:0 74:0 75:0 76:1 77:0 78:0 79:0 80:1 
0.8617885794031742 1:1 2:0 3:0 4:0 5:0 6:0 7:0 8:1 9:0 10:0 11:1 12:0 13:1 14:0 15:0 16:0 17:0 18:0 19:0 20:1 21:0 22:1 23:0 24:0 25:1 26:0 27:0 28:0 29:1 30:0 31:0 32:0 33:0 34:0 35:1 36:0 37:0 38:0 39:0 40:1 41:0 42:1 43:0 44:0 45:0 46:1 47:0 48:0 49:0 50:0 51:0 52:1 53:0 54:0 55:1 56:0 57:0 58:0 59:1 60:0 61:0 62:0 63:1 64:0 65:1 66:0 67:0 68:0 69:0 70:1 71:0 72:0 73:0 74:0 75:1 76:0 77:0 78:0 79:0 80:1 
1 1:1 2:0 3:0 4:0 5:0 6:0 7:0 8:1 9:1 10:0 11:0 12:0 13:0 14:0 15:1 16:0 17:1 18:0 19:0 20:0 21:0 22:0 23:0 24:1 25:0 26:1 27:0 28:0 29:0 30:0 31:0 32:1 33:0 34:0 35:0 36:1 37:0 38:0 39:1 40:0 41:1 42:0 43:0 44:0 45:0 46:0 47:0 48:1 49:0 50:1 51:0 52:0 53:1 54:0 55:0 56:0 57:0 58:0 59:0 60:1 61:0 62:0 63:1 64:0 65:0 66:0 67:0 68:1 69:0 70:1 71:0 72:0 73:0 74:0 75:1 76:0 77:1 78:0 79:0 80:0 
1 1:0 2:0 3:0 4:1 5:1 6:0 7:0 8:0 9:0 10:0 11:1 12:0 13:0 14:0 15:0 16:1 17:0 18:0 19:1 20:0 21:0 22:0 23:1 24:0 25:0 26:0 27:0 28:1 29:0 30:0 31:1 32:0 33:1 34:0 35:0 36:0 37:1 38:0 39:0 40:0 41:0 42:0 43:1 44:0 45:1 46:0 47:0 48:0 49:0 50:0 51:1 52:0 53:1 54:0 55:0 56:0 57:0 58:0 59:1 60:0 61:0 62:1 63:0 64:0 65:0 66:0 67:1 68:0 69:0 70:0 71:1 72:0 73:1 74:0 75:0 76:0 77:0 78:0 79:0 80:1 
1 1:0 2:1 3:0 4:0 5:0 6:0 7:1 8:0 9:0 10:0 11:1 12:0 13:0 14:0 15:0 16:1 17:0 18:1 19:0 20:0 21:0 22:0 23:1 24:0 25:0 26:0 27:1 28:0 29:0 30:1 31:0 32:0 33:0 34:0 35:0 36:1 37:0 38:0 39:1 40:0 41:0 42:0 43:0 44:1 45:1 46:0 47:0 48:0 49:0 50:0 51:1 52:0 53:0 54:1 55:0 56:0 57:0 58:0 59:1 60:0 61:1 62:0 63:0 64:0 65:0 66:0 67:1 68:0 69:0 70:1 71:0 72:0 73:0 74:0 75:1 76:0 77:0 78:1 79:0 80:0 
1 1:0 2:0 3:0 4:1 5:0 6:0 7:1 8:0 9:0 10:0 11:1 12:0 13:0 14:0 15:0 16:1 17:0 18:1 19:0 20:0 21:0 22:0 23:1 24:0 25:1 26:0 27:0 28:0 29:0 30:0 31:1 32:0 33:0 34:1 35:0 36:0 37:0 38:0 39:0 40:1 41:0 42:0 43:1 44:0 45:1 46:0 47:0 48:0 49:0 50:0 51:1 52:0 53:1 54:0 55:0 56:0 57:0 58:0 59:1 60:0 61:0 62:1 63:0 64:0 65:0 66:1 67:0 68:0 69:0 70:0 71:1 72:0 73:1 74:0 75:0 76:0 77:0 78:0 79:0 80:1 
1 1:0 2:0 3:0 4:1 5:0 6:0 7:1 8:0 9:0 10:0 11:1 12:0 13:1 14:0 15:0 16:0 17:0 18:0 19:0 20:1 21:1 22:0 23:0 24:0 25:0 26:0 27:0 28:1 29:0 30:0 31:0 32:1 33:1 34:0 35:0 36:0 37:0 38:1 39:0 40:0 41:0 42:0 43:0 44:1 45:0 46:0 47:0 48:1 49:1 50:0 51:0 52:0 53:0 54:1 55:0 56:0 57:0 58:0 59:1 60:0 61:0 62:0 63:1 64:0 65:0 66:0 67:1 68:0 69:0 70:0 71:0 72:1 73:0 74:0 75:0 76:1 77:0 78:0 79:0 80:1 
1 1:1 2:0 3:0 4:0 5:0 6:0 7:0 8:1 9:1 10:0 11:0 12:0 13:0 14:0 15:0 16:1 17:0 18:0 19:1 20:0 21:0 22:0 23:1 24:0 25:1 26:0 27:0 28:0 29:1 30:0 31:0 32:0 33:0 34:0 35:1 36:0 37:1 38:0 39:0 40:0 41:1 42:0 43:0 44:0 45:0 46:0 47:1 48:0 49:0 50:0 51:0 52:1 53:0 54:0 55:0 56:1 57:0 58:0 59:1 60:0 61:0 62:0 63:0 64:1 65:0 66:0 67:1 68:0 69:0 70:1 71:0 72:0 73:0 74:0 75:0 76:1 77:0 78:0 79:1 80:0 
1 1:0 2:0 3:1 4:0 5:0 6:0 7:0 8:1 9:0 10:0 11:0 12:1 13:1 14:0 15:0 16:0 17:0 18:0 19:1 20:0 21:0 22:0 23:1 24:0 25:1 26:0 27:0 28:0 29:0 30:1 31:0 32:0 33:1 34:0 35:0 36:0 37:1 38:0 39:0 40:0 41:0 42:0 43:0 44:1 45:1 46:0 47:0 48:0 49:0 50:1 51:0 52:0 53:1 54:0 55:0 56:0 57:0 58:0 59:1 60:0 61:0 62:1 63:0 64:0 65:1 66:0 67:0 68:0 69:0 70:0 71:1 72:0 73:0 74:0 75:1 76:0 77:0 78:0 79:0 80:1 
0.2638994076570756 1:0 2:1 3:0 4:0 5:0 6:0 7:1 8:0 9:0 10:1 11:0 12:0 13:1 14:0 15:0 16:0 17:1 18:0 19:0 20:0 21:0 22:0 23:1 24:0 25:1 26:0 27:0 28:0 29:0 30:0 31:1 32:0 33:1 34:0 35:0 36:0 37:1 38:0 39:0 40:0 41:0 42:0 43:0 44:1 45:0 46:1 47:0 48:0 49:1 50:0 51:0 52:0 53:0 54:0 55:0 56:1 57:0 58:0 59:0 60:1 61:0 62:0 63:1 64:0 65:0 66:0 67:1 68:0 69:0 70:0 71:1 72:0 73:1 74:0 75:0 76:0 77:0 78:0 79:1 80:0 
1 1:0 2:0 3:0 4:1 5:1 6:0 7:0 8:0 9:1 10:0 11:0 12:0 13:0 14:0 15:0 16:1 17:0 18:0 19:0 20:1 21:1 22:0 23:0 24:0 25:0 26:1 27:0 28:0 29:0 30:1 31:0 32:0 33:0 34:1 35:0 36:0 37:0 38:1 39:0 40:0 41:1 42:0 43:0 44:0 45:0 46:1 47:0 48:0 49:1 50:0 51:0 52:0 53:0 54:1 55:0 56:0 57:0 58:1 59:0 60:0 61:0 62:1 63:0 64:0 65:1 66:0 67:0 68:0 69:1 70:0 71:0 72:0 73:0 74:0 75:0 76:1 77:1 78:0 79:0 80:0 
0.0001477760371184886 1:0 2:0 3:0 4:1 5:0 6:1 7:0 8:0 9:0 10:1 11:0 12:0 13:0 14:0 15:1 16:0 17:0 18:0 19:1 20:0 21:0 22:1 23:0 24:0 25:0 26:0 27:1 28:0 29:0 30:0 31:1 32:0 33:1 34:0 35:0 36:0 37:1 38:0 39:0 40:0 41:0 42:0 43:0 44:1 45:0 46:1 47:0 48:0 49:1 50:0 51:0 52:0 53:0 54:0 55:1 56:0 57:0 58:1 59:0 60:0 61:0 62:0 63:1 64:0 65:0 66:0 67:0 68:1 69:0 70:0 71:1 72:0 73:0 74:0 75:1 76:0 77:0 78:0 79:0 80:1 
1 1:0 2:0 3:1 4:0 5:0 6:0 7:1 8:0 9:0 10:0 11:1 12:0 13:0 14:0 15:0 16:1 17:1 18:0 19:0 20:0 21:1 22:0 23:0 24:0 25:0 26:1 27:0 28:0 29:0 30:0 31:1 32:0 33:0 34:0 35:1 36:0 37:0 38:0 39:0 40:1 41:1 42:0 43:0 44:0 45:0 46:0 47:0 48:1 49:0 50:1 51:0 52:0 53:1 54:0 55:0 56:0 57:0 58:0 59:0 60:1 61:0 62:0 63:0 64:1 65:1 66:0 67:0 68:0 69:0 70:0 71:1 72:0 73:0 74:1 75:0 76:0 77:0 78:0 79:1 80:0 
1 1:0 2:1 3:0 4:0 5:0 6:0 7:1 8:0 9:0 10:0 11:1 12:0 13:0 14:1 15:0 16:0 17:0 18:0 19:1 20:0 21:0 22:0 23:1 24:0 25:0 26:1 27:0 28:0 29:0 30:0 31:1 32:0 33:0 34:0 35:1 36:0 37:0 38:1 39:0 40:0 41:0 42:0 43:1 44:0 45:0 46:0 47:1 48:0 49:0 50:1 51:0 52:0 53:0 54:0 55:1 56:0 57:1 58:0 59:0 60:0 61:1 62:0 63:0 64:0 65:1 66:0 67:0 68:0 69:0 70:0 71:1 72:0 73:0 74:0 75:0 76:1 77:1 78:0 79:0 80:0 
1 1:1 2:0 3:0 4:0 5:0 6:0 7:0 8:1 9:0 10:1 11:0 12:0 13:1 14:0 15:0 16:0 17:0 18:1 19:0 20:0 21:0 22:1 23:0 24:0 25:0 26:0 27:0 28:1 29:0 30:0 31:0 32:1 33:0 34:0 35:0 36:1 37:0 38:1 39:0 40:0 41:1 42:0 43:0 44:0 45:0 46:0 47:1 48:0 49:0 50:0 51:0 52:1 53:0 54:0 55:1 56:0 57:0 58:0 59:1 60:0 61:0 62:0 63:0 64:1 65:0 66:0 67:0 68:1 69:0 70:0 71:1 72:0 73:0 74:0 75:0 76:1 77:0 78:0 79:1 80:0 
1 1:0 2:1 3:0 4:0 5:1 6:0 7:0 8:0 9:0 10:0 11:1 12:0 13:0 14:1 15:0 16:0 17:0 18:1 19:0 20:0 21:0 22:1 23:0 24:0 25:0 26:0 27:0 28:1 29:0 30:1 31:0 32:0 33:0 34:0 35:0 36:1 37:0 38:1 39:0 40:0 41:1 42:0 43:0 44:0 45:1 46:0 47:0 48:0 49:0 50:1 51:0 52:0 53:0 54:1 55:0 56:0 57:0 58:1 59:0 60:0 61:0 62:0 63:0 64:1 65:1 66:0 67:0 68:0 69:0 70:0 71:0 72:1 73:0 74:0 75:0 76:1 77:1 78:0 79:0 80:0 
1 1:0 2:1 3:0 4:0 5:0 6:0 7:1 8:0 9:0 10:0 11:0 12:1 13:1 14:0 15:0 16:0 17:1 18:0 19:0 20:0 21:1 22:0 23:0 24:0 25:0 26:1 27:0 28:0 29:1 30:0 31:0 32:0 33:1 34:0 35:0 36:0 37:0 38:0 39:1 40:0 41:0 42:1 43:0 44:0 45:0 46:1 47:0 48:0 49:0 50:0 51:1 52:0 53:0 54:0 55:1 56:0 57:0 58:0 59:0 60:1 61:0 62:0 63:0 64:1 65:1 66:0 67:0 68:0 69:1 70:0 71:0 72:0 73:0 74:0 75:1 76:0 77:0 78:0 79:1 80:0 
1 1:1 2:0 3:0 4:0 5:0 6:1 7:0 8:0 9:1 10:0 11:0 12:0 13:1 14:0 15:0 16:0 17:1 18:0 19:0 20:0 21:1 22:0 23:0 24:0 25:0 26:0 27:0 28:1 29:0 30:0 31:1 32:0 33:0 34:0 35:1 36:0 37:0 38:1 39:0 40:0 41:0 42:1 43:0 44:0 45:0 46:1 47:0 48:0 49:0 50:0 51:0 52:1 53:0 54:0 55:1 56:0 57:0 58:0 59:1 60:0 61:0 62:0 63:0 64:1 65:1 66:0 67:0 68:0 69:1 70:0 71:0 72:0 73:0 74:0 75:1 76:0 77:0 78:0 79:0 80:1 
0.3884782408920865 1:0 2:0 3:0 4:1 5:1 6:0 7:0 8:0 9:0 10:1 11:0 12:0 13:1 14:0 15:0 16:0 17:0 18:0 19:1 20:0 21:0 22:1 23:0 24:0 25:0 26:0 27:0 28:1 29:0 30:0 31:1 32:0 33:0 34:0 35:0 36:1 37:0 38:0 39:0 40:1 41:1 42:0 43:0 44:0 45:0 46:0 47:0 48:1 49:0 50:1 51:0 52:0 53:0 54:0 55:0 56:1 57:0 58:0 59:1 60:0 61:0 62:0 63:0 64:1 65:0 66:1 67:0 68:0 69:1 70:0 71:0 72:0 73:1 74:0 75:0 76:0 77:0 78:0 79:1 80:0 
0.3883925387750077 1:0 2:0 3:0 4:1 5:0 6:0 7:0 8:1 9:0 10:0 11:0 12:1 13:0 14:0 15:1 16:0 17:0 18:0 19:0 20:1 21:1 22:0 23:0 24:0 25:1 26:0 27:0 28:0 29:0 30:1 31:0 32:0 33:1 34:0 35:0 36:0 37:1 38:0 39:0 40:0 41:0 42:0 43:0 44:1 45:1 46:0 47:0 48:0 49:0 50:0 51:0 52:1 53:0 54:0 55:1 56:0 57:0 58:1 59:0 60:0 61:0 62:0 63:1 64:0 65:0 66:0 67:0 68:1 69:1 70:0 71:0 72:0 73:0 74:0 75:1 76:0 77:0 78:0 79:1 80:0 
0.8188596634844826 1:0 2:0 3:1 4:0 5:0 6:0 7:1 8:0 9:1 10:0 11:0 12:0 13:0 14:0 15:0 16:1 17:1 18:0 19:0 20:0 21:0 22:0 23:0 24:1 25:1 26:0 27:0 28:0 29:0 30:0 31:1 32:0 33:0 34:1 35:0 36:0 37:0 38:0 39:1 40:0 41:0 42:0 43:0 44:1 45:1 46:0 47:0 48:0 49:0 50:0 51:0 52:1 53:0 54:0 55:1 56:0 57:0 58:0 59:1 60:0 61:1 62:0 63:0 64:0 65:1 66:0 67:0 68:0 69:1 70:0 71:0 72:0 73:0 74:0 75:0 76:1 77:0 78:0 79:0 80:1 
1 1:0 2:0 3:0 4:1 5:1 6:0 7:0 8:0 9:0 10:0 11:1 12:0 13:0 14:1 15:0 16:0 17:0 18:0 19:0 20:1 21:0 22:0 23:1 24:0 25:0 26:0 27:1 28:0 29:0 30:0 31:1 32:0 33:0 34:1 35:0 36:0 37:1 38:0 39:0 40:0 41:0 42:1 43:0 44:0 45:0 46:1 47:0 48:0 49:0 50:0 51:1 52:0 53:0 54:0 55:0 56:1 57:0 58:1 59:0 60:0 61:1 62:0 63:0 64:0 65:1 66:0 67:0 68:0 69:0 70:1 71:0 72:0 73:1 74:0 75:0 76:0 77:0 78:0 79:1 80:0 
1 1:1 2:0 3:0 4:0 5:0 6:1 7:0 8:0 9:1 10:0 11:0 12:0 13:0 14:1 15:0 16:0 17:0 18:0 19:1 20:0 21:0 22:0 23:1 24:0 25:0 26:0 27:0 28:1 29:0 30:0 31:1 32:0 33:1 34:0 35:0 36:0 37:0 38:0 39:0 40:1 41:0 42:0 43:1 44:0 45:0 46:0 47:1 48:0 49:0 50:1 51:0 52:0 53:0 54:0 55:1 56:0 57:0 58:0 59:0 60:1 61:1 62:0 63:0 64:0 65:0 66:0 67:0 68:1 69:0 70:0 71:0 72:1 73:0 74:0 75:1 76:0 77:0 78:0 79:1 80:0 
0.05183771436243069 1:1 2:0 3:0 4:0 5:0 6:0 7:0 8:1 9:1 10:0 11:0 12:0 13:1 14:0 15:0 16:0 17:1 18:0 19:0 20:0 21:0 22:1 23:0 24:0 25:0 26:1 27:0 28:0 29:0 30:1 31:0 32:0 33:1 34:0 35:0 36:0 37:0 38:1 39:0 40:0 41:0 42:0 43:0 44:1 45:0 46:0 47:0 48:1 49:0 50:0 51:0 52:1 53:0 54:1 55:0 56:0 57:1 58:0 59:0 60:0 61:1 62:0 63:0 64:0 65:0 66:0 67:0 68:1 69:0 70:0 71:0 72:1 73:1 74:0 75:0 76:0 77:0 78:0 79:1 80:0 
1 1:0 2:0 3:1 4:0 5:0 6:0 7:0 8:1 9:0 10:0 11:0 12:1 13:1 14:0 15:0 16:0 17:0 18:0 19:1 20:0 21:0 22:1 23:0 24:0 25:0 26:0 27:1 28:0 29:0 30:0 31:1 32:0 33:0 34:0 35:1 36:0 37:0 38:0 39:0 40:1 41:1 42:0 43:0 44:0 45:1 46:0 47:0 48:0 49:1 50:0 51:0 52:0 53:0 54:0 55:0 56:1 57:0 58:0 59:0 60:1 61:0 62:1 63:0 64:0 65:0 66:0 67:1 68:0 69:0 70:0 71:1 72:0 73:0 74:0 75:1 76:0 77:0 78:0 79:0 80:1 
0.4334195624823575 1:0 2:0 3:0 4:1 5:1 6:0 7:0 8:0 9:0 10:0 11:0 12:1 13:0 14:1 15:0 16:0 17:1 18:0 19:0 20:0 21:0 22:0 23:0 24:1 25:1 26:0 27:0 28:0 29:0 30:0 31:1 32:0 33:0 34:0 35:0 36:1 37:1 38:0 39:0 40:0 41:1 42:0 43:0 44:0 45:0 46:0 47:0 48:1 49:0 50:1 51:0 52:0 53:0 54:1 55:0 56:0 57:0 58:0 59:0 60:1 61:0 62:0 63:1 64:0 65:0 66:0 67:1 68:0 69:0 70:0 71:0 72:1 73:0 74:1 75:0 76:0 77:1 78:0 79:0 80:0 
0.7480496621591265 1:0 2:1 3:0 4:0 5:1 6:0 7:0 8:0 9:0 10:0 11:0 12:1 13:0 14:0 15:1 16:0 17:1 18:0 19:0 20:0 21:1 22:0 23:0 24:0 25:0 26:1 27:0 28:0 29:1 30:0 31:0 32:0 33:1 34:0 35:0 36:0 37:0 38:1 39:0 40:0 41:0 42:1 43:0 44:0 45:1 46:0 47:0 48:0 49:0 50:0 51:1 52:0 53:0 54:0 55:0 56:1 57:0 58:1 59:0 60:0 61:0 62:1 63:0 64:0 65:1 66:0 67:0 68:0 69:0 70:1 71:0 72:0 73:1 74:0 75:0 76:0 77:1 78:0 79:0 80:0 
0.4976806918398733 1:0 2:1 3:0 4:0 5:1 6:0 7:0 8:0 9:0 10:0 11:1 12:0 13:0 14:0 15:0 16:1 17:0 18:1 19:0 20:0 21:0 22:0 23:0 24:1 25:0 26:0 27:1 28:0 29:0 30:1 31:0 32:0 33:1 34:0 35:0 36:0 37:1 38:0 39:0 40:0 41:1 42:0 43:0 44:0 45:0 46:0 47:1 48:0 49:0 50:0 51:0 52:1 53:0 54:0 55:1 56:0 57:0 58:0 59:1 60:0 61:0 62:0 63:1 64:0 65:0 66:0 67:0 68:1 69:0 70:0 71:1 72:0 73:0 74:0 75:1 76:0 77:0 78:0 79:0 80:1 
0.5479039865807465 1:1 2:0 3:0 4:0 5:1 6:0 7:0 8:0 9:0 10:1 11:0 12:0 13:1 14:0 15:0 16:0 17:1 18:0 19:0 20:0 21:0 22:1 23:0 24:0 25:1 26:0 27:0 28:0 29:1 30:0 31:0 32:0 33:0 34:0 35:1 36:0 37:0 38:1 39:0 40:0 41:0 42:0 43:0 44:1 45:0 46:0 47:0 48:1 49:0 50:0 51:0 52:1 53:0 54:1 55:0 56:0 57:0 58:0 59:0 60:1 61:0 62:0 63:1 64:0 65:0 66:0 67:0 68:1 69:0 70:1 71:0 72:0 73:0 74:0 75:0 76:1 77:0 78:0 79:1 80:0 
1 1:1 2:0 3:0 4:0 5:0 6:0 7:0 8:1 9:1 10:0 11:0 12:0 13:1 14:0 15:0 16:0 17:0 18:0 19:1 20:0 21:0 22:0 23:0 24:1 25:1 26:0 27:0 28:0 29:0 30:0 31:1 32:0 33:0 34:0 35:0 36:1 37:1 38:0 39:0 40:0 41:0 42:1 43:0 44:0 45:0 46:1 47:0 48:0 49:0 50:0 51:1 52:0 53:0 54:1 55:0 56:0 57:0 58:0 59:0 60:1 61:1 62:0 63:0 64:0 65:0 66:1 67:0 68:0 69:0 70:0 71:1 72:0 73:0 74:0 75:1 76:0 77:0 78:0 79:1 80:0 
0.07882844367697397 1:1 2:0 3:0 4:0 5:0 6:1 7:0 8:0 9:0 10:0 11:1 12:0 13:0 14:1 15:0 16:0 17:0 18:1 19:0 20:0 21:0 22:0 23:1 24:0 25:0 26:0 27:0 28:1 29:0 30:1 31:0 32:0 33:0 34:1 35:0 36:0 37:0 38:0 39:1 40:0 41:0 42:0 43:1 44:0 45:0 46:0 47:1 48:0 49:0 50:0 51:0 52:1 53:0 54:1 55:0 56:0 57:0 58:1 59:0 60:0 61:1 62:0 63:0 64:0 65:1 66:0 67:0 68:0 69:1 70:0 71:0 72:0 73:0 74:0 75:1 76:0 77:1 78:0 79:0 80:0 
0.4238108842852325 1:0 2:1 3:0 4:0 5:0 6:1 7:0 8:0 9:1 10:0 11:0 12:0 13:1 14:0 15:0 16:0 17:0 18:1 19:0 20:0 21:0 22:0 23:1 24:0 25:0 26:0 27:0 28:1 29:1 30:0 31:0 32:0 33:0 34:1 35:0 36:0 37:0 38:1 39:0 40:0 41:0 42:1 43:0 44:0 45:0 46:0 47:1 48:0 49:0 50:1 51:0 52:0 53:0 54:0 55:0 56:1 57:0 58:0 59:1 60:0 61:1 62:0 63:0 64:0 65:1 66:0 67:0 68:0 69:0 70:0 71:0 72:1 73:1 74:0 75:0 76:0 77:1 78:0 79:0 80:0 
1 1:0 2:0 3:0 4:1 5:1 6:0 7:0 8:0 9:1 10:0 11:0 12:0 13:0 14:0 15:0 16:1 17:0 18:1 19:0 20:0 21:0 22:0 23:1 24:0 25:0 26:1 27:0 28:0 29:1 30:0 31:0 32:0 33:0 34:1 35:0 36:0 37:1 38:0 39:0 40:0 41:0 42:1 43:0 44:0 45:1 46:0 47:0 48:0 49:0 50:0 51:0 52:1 53:0 54:0 55:0 56:1 57:0 58:1 59:0 60:0 61:0 62:0 63:1 64:0 65:0 66:0 67:1 68:0 69:1 70:0 71:0 72:0 73:1 74:0 75:0 76:0 77:0 78:0 79:1 80:0 
1 1:0 2:0 3:0 4:1 5:1 6:0 7:0 8:0 9:0 10:0 11:1 12:0 13:0 14:0 15:0 16:1 17:0 18:0 19:0 20:1 21:0 22:0 23:0 24:1 25:0 26:1 27:0 28:0 29:0 30:0 31:0 32:1 33:1 34:0 35:0 36:0 37:0 38:0 39:0 40:1 41:0 42:0 43:0 44:1 45:0 46:0 47:0 48:1 49:0 50:0 51:1 52:0 53:0 54:0 55:0 56:1 57:0 58:1 59:0 60:0 61:1 62:0 63:0 64:0 65:0 66:0 67:0 68:1 69:0 70:0 71:1 72:0 73:0 74:0 75:0 76:1 77:0 78:0 79:0 80:1 
1 1:0 2:0 3:1 4:0 5:1 6:0 7:0 8:0 9:1 10:0 11:0 12:0 13:0 14:0 15:1 16:0 17:1 18:0 19:0 20:0 21:0 22:0 23:0 24:1 25:0 26:0 27:1 28:0 29:0 30:0 31:1 32:0 33:0 34:0 35:0 36:1 37:0 38:0 39:1 40:0 41:0 42:0 43:0 44:1 45:0 46:1 47:0 48:0 49:1 50:0 51:0 52:0 53:0 54:0 55:0 56:1 57:1 58:0 59:0 60:0 61:0 62:0 63:1 64:0 65:0 66:1 67:0 68:0 69:0 70:0 71:1 72:0 73:0 74:0 75:1 76:0 77:0 78:1 79:0 80:0 
0.1187687447940739 1:0 2:1 3:0 4:0 5:1 6:0 7:0 8:0 9:1 10:0 11:0 12:0 13:0 14:1 15:0 16:0 17:1 18:0 19:0 20:0 21:1 22:0 23:0 24:0 25:1 26:0 27:0 28:0 29:0 30:1 31:0 32:0 33:0 34:0 35:1 36:0 37:0 38:0 39:0 40:1 41:1 42:0 43:0 44:0 45:0 46:0 47:0 48:1 49:0 50:0 51:0 52:1 53:1 54:0 55:0 56:0 57:0 58:1 59:0 60:0 61:0 62:1 63:0 64:0 65:1 66:0 67:0 68:0 69:1 70:0 71:0 72:0 73:0 74:1 75:0 76:0 77:1 78:0 79:0 80:0 
0.2998519584275796 1:1 2:0 3:0 4:0 5:0 6:0 7:1 8:0 9:1 10:0 11:0 12:0 13:0 14:1 15:0 16:0 17:1 18:0 19:0 20:0 21:1 22:0 23:0 24:0 25:0 26:0 27:1 28:0 29:0 30:1 31:0 32:0 33:1 34:0 35:0 36:0 37:0 38:0 39:1 40:0 41:0 42:0 43:0 44:1 45:1 46:0 47:0 48:0 49:0 50:1 51:0 52:0 53:0 54:0 55:1 56:0 57:1 58:0 59:0 60:0 61:1 62:0 63:0 64:0 65:1 66:0 67:0 68:0 69:1 70:0 71:0 72:0 73:0 74:0 75:1 76:0 77:0 78:0 79:0 80:1 
1 1:0 2:1 3:0 4:0 5:0 6:0 7:1 8:0 9:0 10:0 11:1 12:0 13:0 14:1 15:0 16:0 17:0 18:0 19:1 20:0 21:1 22:0 23:0 24:0 25:1 26:0 27:0 28:0 29:0 30:1 31:0 32:0 33:1 34:0 35:0 36:0 37:1 38:0 39:0 40:0 41:0 42:1 43:0 44:0 45:1 46:0 47:0 48:0 49:0 50:0 51:1 52:0 53:0 54:0 55:1 56:0 57:0 58:1 59:0 60:0 61:1 62:0 63:0 64:0 65:1 66:0 67:0 68:0 69:1 70:0 71:0 72:0 73:0 74:0 75:1 76:0 77:0 78:0 79:1 80:0 
1 1:0 2:0 3:0 4:1 5:0 6:0 7:0 8:1 9:1 10:0 11:0 12:0 13:0 14:0 15:0 16:1 17:0 18:1 19:0 20:0 21:1 22:0 23:0 24:0 25:0 26:0 27:0 28:1 29:0 30:1 31:0 32:0 33:1 34:0 35:0 36:0 37:0 38:0 39:0 40:1 41:0 42:0 43:0 44:1 45:1 46:0 47:0 48:0 49:0 50:0 51:0 52:1 53:1 54:0 55:0 56:0 57:1 58:0 59:0 60:0 61:0 62:0 63:1 64:0 65:0 66:0 67:1 68:0 69:0 70:0 71:1 72:0 73:0 74:0 75:1 76:0 77:0 78:0 79:1 80:0 
1 1:0 2:0 3:0 4:1 5:1 6:0 7:0 8:0 9:0 10:0 11:1 12:0 13:0 14:0 15:0 16:1 17:0 18:0 19:0 20:1 21:0 22:0 23:0 24:1 25:1 26:0 27:0 28:0 29:0 30:0 31:1 32:0 33:0 34:0 35:1 36:0 37:0 38:0 39:0 40:1 41:0 42:0 43:0 44:1 45:0 46:1 47:0 48:0 49:1 50:0 51:0 52:0 53:0 54:0 55:0 56:1 57:0 58:0 59:1 60:0 61:1 62:0 63:0 64:0 65:1 66:0 67:0 68:0 69:0 70:0 71:0 72:1 73:0 74:0 75:1 76:0 77:0 78:0 79:0 80:1 
1 1:1 2:0 3:0 4:0 5:1 6:0 7:0 8:0 9:0 10:1 11:0 12:0 13:1 14:0 15:0 16:0 17:0 18:1 19:0 20:0 21:0 22:0 23:1 24:0 25:0 26:0 27:1 28:0 29:0 30:0 31:1 32:0 33:0 34:1 35:0 36:0 37:1 38:0 39:0 40:0 41:1 42:0 43:0 44:0 45:0 46:0 47:0 48:1 49:1 50:0 51:0 52:0 53:0 54:0 55:1 56:0 57:0 58:0 59:0 60:1 61:1 62:0 63:0 64:0 65:1 66:0 67:0 68:0 69:0 70:1 71:0 72:0 73:1 74:0 75:0 76:0 77:0 78:1 79:0 80:0 
0.2001808454441549 1:0 2:0 3:0 4:1 5:0 6:0 7:0 8:1 9:1 10:0 11:0 12:0 13:0 14:0 15:1 16:0 17:0 18:1 19:0 20:0 21:1 22:0 23:0 24:0 25:0 26:0 27:0 28:1 29:1 30:0 31:0 32:0 33:0 34:0 35:1 36:0 37:0 38:0 39:0 40:1 41:1 42:0 43:0 44:0 45:0 46:0 47:0 48:1 49:0 50:0 51:0 52:1 53:1 54:0 55:0 56:0 57:0 58:0 59:1 60:0 61:0 62:0 63:0 64:1 65:1 66:0 67:0 68:0 69:1 70:0 71:0 72:0 73:0 74:0 75:1 76:0 77:0 78:0 79:0 80:1 
1 1:0 2:0 3:0 4:1 5:0 6:1 7:0 8:0 9:0 10:0 11:0 12:1 13:1 14:0 15:0 16:0 17:0 18:1 19:0 20:0 21:0 22:1 23:0 24:0 25:0 26:0 27:0 28:1 29:1 30:0 31:0 32:0 33:0 34:0 35:0 36:1 37:0 38:0 39:0 40:1 41:0 42:0 43:0 44:1 45:0 46:1 47:0 48:0 49:1 50:0 51:0 52:0 53:0 54:0 55:1 56:0 57:0 58:0 59:1 60:0 61:0 62:0 63:0 64:1 65:0 66:0 67:0 68:1 69:0 70:1 71:0 72:0 73:0 74:0 75:0 76:1 77:0 78:0 79:0 80:1 
0.8484285568683887 1:0 2:1 3:0 4:0 5:0 6:0 7:0 8:1 9:1 10:0 11:0 12:0 13:0 14:0 15:0 16:1 17:0 18:0 19:0 20:1 21:0 22:0 23:1 24:0 25:0 26:1 27:0 28:0 29:0 30:1 31:0 32:0 33:1 34:0 35:0 36:0 37:1 38:0 39:0 40:0 41:0 42:0 43:1 44:0 45:1 46:0 47:0 48:0 49:1 50:0 51:0 52:0 53:0 54:1 55:0 56:0 57:0 58:0 59:1 60:0 61:0 62:0 63:0 64:1 65:0 66:0 67:0 68:1 69:1 70:0 71:0 72:0 73:0 74:0 75:0 76:1 77:1 78:0 79:0 80:0 
0.09475111309693345 1:0 2:0 3:1 4:0 5:0 6:0 7:0 8:1 9:0 10:0 11:0 12:1 13:0 14:1 15:0 16:0 17:0 18:0 19:1 20:0 21:0 22:0 23:0 24:1 25:0 26:1 27:0 28:0 29:0 30:0 31:1 32:0 33:0 34:0 35:1 36:0 37:0 38:0 39:1 40:0 41:0 42:1 43:0 44:0 45:1 46:0 47:0 48:0 49:0 50:0 51:1 52:0 53:0 54:0 55:1 56:0 57:1 58:0 59:0 60:0 61:1 62:0 63:0 64:0 65:0 66:0 67:0 68:1 69:0 70:0 71:1 72:0 73:0 74:0 75:0 76:1 77:1 78:0 79:0 80:0 
1 1:1 2:0 3:0 4:0 5:0 6:0 7:1 8:0 9:0 10:0 11:0 12:1 13:0 14:0 15:0 16:1 17:1 18:0 19:0 20:0 21:1 22:0 23:0 24:0 25:0 26:0 27:0 28:1 29:0 30:0 31:1 32:0 33:1 34:0 35:0 36:0 37:0 38:0 39:0 40:1 41:0 42:0 43:1 44:0 45:0 46:1 47:0 48:0 49:0 50:1 51:0 52:0 53:0 54:1 55:0 56:0 57:1 58:0 59:0 60:0 61:1 62:0 63:0 64:0 65:1 66:0 67:0 68:0 69:1 70:0 71:0 72:0 73:1 74:0 75:0 76:0 77:0 78:1 79:0 80:0 
1 1:0 2:0 3:1 4:0 5:0 6:0 7:0 8:1 9:1 10:0 11:0 12:0 13:0 14:0 15:1 16:0 17:0 18:0 19:1 20:0 21:0 22:1 23:0 24:0 25:0 26:1 27:0 28:0 29:0 30:1 31:0 32:0 33:0 34:1 35:0 36:0 37:1 38:0 39:0 40:0 41:0 42:1 43:0 44:0 45:0 46:0 47:0 48:1 49:0 50:0 51:0 52:1 53:0 54:1 55:0 56:0 57:0 58:0 59:0 60:1 61:0 62:1 63:0 64:0 65:0 66:0 67:1 68:0 69:0 70:0 71:1 72:0 73:1 74:0 75:0 76:0 77:1 78:0 79:0 80:0 
0.7102210542803277 1:1 2:0 3:0 4:0 5:0 6:1 7:0 8:0 9:1 10:0 11:0 12:0 13:0 14:0 15:1 16:0 17:0 18:0 19:1 20:0 21:0 22:1 23:0 24:0 25:1 26:0 27:0 28:0 29:0 30:1 31:0 32:0 33:1 34:0 35:0 36:0 37:0 38:0 39:0 40:1 41:0 42:0 43:0 44:1 45:0 46:0 47:0 48:1 49:0 50:1 51:0 52:0 53:1 54:0 55:0 56:0 57:0 58:0 59:0 60:1 61:0 62:0 63:0 64:1 65:0 66:1 67:0 68:0 69:1 70:0 71:0 72:0 73:1 74:0 75:0 76:0 77:1 78:0 79:0 80:0 
1 1:0 2:0 3:0 4:1 5:0 6:0 7:1 8:0 9:0 10:0 11:1 12:0 13:0 14:0 15:1 16:0 17:0 18:1 19:0 20:0 21:1 22:0 23:0 24:0 25:0 26:0 27:1 28:0 29:0 30:0 31:0 32:1 33:0 34:1 35:0 36:0 37:1 38:0 39:0 40:0 41:0 42:0 43:0 44:1 45:0 46:0 47:1 48:0 49:0 50:0 51:0 52:1 53:0 54:0 55:0 56:1 57:1 58:0 59:0 60:0 61:1 62:0 63:0 64:0 65:1 66:0 67:0 68:0 69:1 70:0 71:0 72:0 73:0 74:1 75:0 76:0 77:0 78:0 79:0 80:1 
1 1:0 2:1 3:0 4:0 5:1 6:0 7:0 8:0 9:0 10:1 11:0 12:0 13:0 14:0 15:1 16:0 17:1 18:0 19:0 20:0 21:1 22:0 23:0 24:0 25:1 26:0 27:0 28:0 29:1 30:0 31:0 32:0 33:0 34:0 35:0 36:1 37:0 38:0 39:1 40:0 41:0 42:0 43:0 44:1 45:1 46:0 47:0 48:0 49:0 50:1 51:0 52:0 53:1 54:0 55:0 56:0 57:0 58:0 59:0 60:1 61:0 62:1 63:0 64:0 65:0 66:0 67:1 68:0 69:1 70:0 71:0 72:0 73:0 74:0 75:1 76:0 77:0 78:1 79:0 80:0 
1 1:0 2:0 3:1 4:0 5:0 6:0 7:0 8:1 9:0 10:1 11:0 12:0 13:0 14:0 15:1 16:0 17:0 18:0 19:1 20:0 21:0 22:1 23:0 24:0 25:1 26:0 27:0 28:0 29:0 30:1 31:0 32:0 33:0 34:0 35:0 36:1 37:0 38:0 39:0 40:1 41:0 42:0 43:0 44:1 45:0 46:1 47:0 48:0 49:0 50:1 51:0 52:0 53:0 54:0 55:0 56:1 57:1 58:0 59:0 60:0 61:1 62:0 63:0 64:0 65:1 66:0 67:0 68:0 69:0 70:0 71:1 72:0 73:0 74:0 75:1 76:0 77:0 78:0 79:1 80:0 
-1 1:0 2:0 3:1 4:0 5:0 6:0 7:0 8:1 9:0 10:0 11:0 12:1 13:0 14:0 15:1 16:0 17:0 18:0 19:1 20:0 21:0 22:0 23:1 24:0 25:0 26:0 27:0 28:1 29:0 30:0 31:1 32:0 33:0 34:1 35:0 36:0 37:0 38:0 39:0 40:1 41:0 42:0 43:1 44:0 45:1 46:0 47:0 48:0 49:0 50:1 51:0 52:0 53:0 54:0 55:1 56:0 57:0 58:0 59:0 60:1 61:0 62:1 63:0 64:0 65:0 66:0 67:0 68:1 69:1 70:0 71:0 72:0 73:0 74:0 75:1 76:0 77:0 78:0 79:0 80:1 
-1 1:0 2:0 3:0 4:1 5:0 6:0 7:0 8:1 9:1 10:0 11:0 12:0 13:1 14:0 15:0 16:0 17:0 18:0 19:1 20:0 21:0 22:0 23:1 24:0 25:0 26:0 27:0 28:1 29:0 30:0 31:1 32:0 33:0 34:0 35:1 36:0 37:1 38:0 39:0 40:0 41:0 42:0 43:0 44:1 45:0 46:0 47:1 48:0 49:0 50:0 51:1 52:0 53:1 54:0 55:0 56:0 57:0 58:0 59:1 60:0 61:0 62:1 63:0 64:0 65:0 66:1 67:0 68:0 69:0 70:0 71:1 72:0 73:0 74:0 75:1 76:0 77:1 78:0 79:0 80:0 
-1 1:0 2:1 3:0 4:0 5:1 6:0 7:0 8:0 9:0 10:0 11:1 12:0 13:1 14:0 15:0 16:0 17:0 18:1 19:0 20:0 21:0 22:0 23:1 24:0 25:0 26:0 27:0 28:1 29:0 30:0 31:0 32:1 33:0 34:0 35:1 36:0 37:0 38:1 39:0 40:0 41:1 42:0 43:0 44:0 45:1 46:0 47:0 48:0 49:0 50:0 51:1 52:0 53:1 54:0 55:0 56:0 57:0 58:0 59:1 60:0 61:1 62:0 63:0 64:0 65:1 66:0 67:0 68:0 69:0 70:0 71:1 72:0 73:0 74:1 75:0 76:0 77:0 78:0 79:1 80:0 
-1 1:0 2:1 3:0 4:0 5:1 6:0 7:0 8:0 9:1 10:0 11:0 12:0 13:0 14:0 15:0 16:1 17:0 18:0 19:0 20:1 21:0 22:1 23:0 24:0 25:1 26:0 27:0 28:0 29:0 30:0 31:1 32:0 33:0 34:0 35:1 36:0 37:0 38:0 39:1 40:0 41:1 42:0 43:0 44:0 45:0 46:0 47:0 48:1 49:1 50:0 51:0 52:0 53:0 54:0 55:0 56:1 57:0 58:1 59:0 60:0 61:0 62:1 63:0 64:0 65:0 66:0 67:1 68:0 69:0 70:0 71:1 72:0 73:0 74:1 75:0 76:0 77:0 78:0 79:1 80:0 
-1 1:0 2:0 3:0 4:1 5:0 6:0 7:0 8:1 9:0 10:0 11:1 12:0 13:0 14:1 15:0 16:0 17:0 18:0 19:1 20:0 21:0 22:1 23:0 24:0 25:0 26:0 27:0 28:1 29:0 30:0 31:1 32:0 33:0 34:0 35:0 36:1 37:0 38:0 39:1 40:0 41:0 42:0 43:1 44:0 45:0 46:1 47:0 48:0 49:0 50:0 51:0 52:1 53:1 54:0 55:0 56:0 57:0 58:1 59:0 60:0 61:1 62:0 63:0 64:0 65:0 66:0 67:0 68:1 69:1 70:0 71:0 72:0 73:1 74:0 75:0 76:0 77:1 78:0 79:0 80:0 
-1 1:1 2:0 3:0 4:0 5:1 6:0 7:0 8:0 9:0 10:0 11:0 12:1 13:0 14:0 15:0 16:1 17:0 18:1 19:0 20:0 21:0 22:0 23:1 24:0 25:0 26:1 27:0 28:0 29:0 30:1 31:0 32:0 33:0 34:0 35:1 36:0 37:1 38:0 39:0 40:0 41:0 42:0 43:0 44:1 45:1 46:0 47:0 48:0 49:0 50:1 51:0 52:0 53:0 54:0 55:0 56:1 57:0 58:1 59:0 60:0 61:1 62:0 63:0 64:0 65:0 66:0 67:1 68:0 69:1 70:0 71:0 72:0 73:1 74:0 75:0 76:0 77:0 78:0 79:0 80:1 
-1 1:0 2:1 3:0 4:0 5:0 6:0 7:1 8:0 9:1 10:0 11:0 12:0 13:0 14:0 15:1 16:0 17:0 18:1 19:0 20:0 21:0 22:0 23:1 24:0 25:0 26:0 27:1 28:0 29:1 30:0 31:0 32:0 33:1 34:0 35:0 36:0 37:1 38:0 39:0 40:0 41:0 42:1 43:0 44:0 45:1 46:0 47:0 48:0 49:1 50:0 51:0 52:0 53:0 54:0 55:0 56:1 57:1 58:0 59:0 60:0 61:0 62:0 63:1 64:0 65:1 66:0 67:0 68:0 69:0 70:0 71:1 72:0 73:1 74:0 75:0 76:0 77:0 78:0 79:1 80:0 
-1 1:0 2:1 3:0 4:0 5:0 6:1 7:0 8:0 9:0 10:0 11:0 12:1 13:0 14:0 15:0 16:1 17:0 18:0 19:1 20:0 21:0 22:0 23:0 24:1 25:1 26:0 27:0 28:0 29:1 30:0 31:0 32:0 33:1 34:0 35:0 36:0 37:0 38:0 39:0 40:1 41:0 42:0 43:0 44:1 45:0 46:1 47:0 48:0 49:0 50:0 51:0 52:1 53:0 54:1 55:0 56:0 57:0 58:0 59:0 60:1 61:0 62:1 63:0 64:0 65:0 66:0 67:0 68:1 69:0 70:0 71:0 72:1 73:1 74:0 75:0 76:0 77:1 78:0 79:0 80:0 
-1 1:0 2:0 3:1 4:0 5:0 6:1 7:0 8:0 9:0 10:0 11:1 12:0 13:0 14:0 15:1 16:0 17:0 18:0 19:1 20:0 21:1 22:0 23:0 24:0 25:1 26:0 27:0 28:0 29:0 30:1 31:0 32:0 33:0 34:0 35:1 36:0 37:0 38:0 39:0 40:1 41:1 42:0 43:0 44:0 45:0 46:1 47:0 48:0 49:0 50:1 51:0 52:0 53:0 54:0 55:1 56:0 57:1 58:0 59:0 60:0 61:1 62:0 63:0 64:0 65:1 66:0 67:0 68:0 69:0 70:0 71:0 72:1 73:0 74:1 75:0 76:0 77:1 78:0 79:0 80:0 
-0.8636680984192632 1:0 2:0 3:0 4:1 5:0 6:1 7:0 8:0 9:0 10:0 11:1 12:0 13:0 14:0 15:1 16:0 17:1 18:0 19:0 20:0 21:1 22:0 23:0 24:0 25:0 26:0 27:1 28:0 29:0 30:0 31:0 32:1 33:0 34:0 35:1 36:0 37:1 38:0 39:0 40:0 41:0 42:0 43:0 44:1 45:0 46:1 47:0 48:0 49:0 50:0 51:1 52:0 53:0 54:0 55:1 56:0 57:0 58:0 59:1 60:0 61:0 62:0 63:1 64:0 65:1 66:0 67:0 68:0 69:0 70:0 71:0 72:1 73:0 74:1 75:0 76:0 77:0 78:1 79:0 80:0 
-1 1:0 2:0 3:0 4:1 5:0 6:0 7:0 8:1 9:0 10:1 11:0 12:0 13:1 14:0 15:0 16:0 17:0 18:0 19:1 20:0 21:0 22:1 23:0 24:0 25:0 26:1 27:0 28:0 29:1 30:0 31:0 32:0 33:1 34:0 35:0 36:0 37:0 38:0 39:0 40:1 41:0 42:0 43:0 44:1 45:0 46:0 47:1 48:0 49:1 50:0 51:0 52:0 53:0 54:0 55:0 56:1 57:0 58:0 59:0 60:1 61:1 62:0 63:0 64:0 65:0 66:0 67:0 68:1 69:0 70:1 71:0 72:0 73:0 74:0 75:1 76:0 77:0 78:0 79:0 80:1 
-1 1:0 2:1 3:0 4:0 5:0 6:1 7:0 8:0 9:0 10:1 11:0 12:0 13:1 14:0 15:0 16:0 17:1 18:0 19:0 20:0 21:0 22:1 23:0 24:0 25:0 26:0 27:0 28:1 29:0 30:0 31:1 32:0 33:0 34:0 35:1 36:0 37:1 38:0 39:0 40:0 41:0 42:1 43:0 44:0 45:1 46:0 47:0 48:0 49:1 50:0 51:0 52:0 53:0 54:0 55:0 56:1 57:0 58:0 59:0 60:1 61:0 62:0 63:0 64:1 65:0 66:0 67:1 68:0 69:1 70:0 71:0 72:0 73:0 74:0 75:1 76:0 77:0 78:0 79:1 80:0 
-1 1:0 2:0 3:1 4:0 5:1 6:0 7:0 8:0 9:0 10:1 11:0 12:0 13:0 14:0 15:1 16:0 17:0 18:0 19:0 20:1 21:1 22:0 23:0 24:0 25:0 26:0 27:0 28:1 29:1 30:0 31:0 32:0 33:0 34:0 35:0 36:1 37:0 38:1 39:0 40:0 41:1 42:0 43:0 44:0 45:1 46:0 47:0 48:0 49:0 50:0 51:1 52:0 53:0 54:0 55:1 56:0 57:0 58:0 59:0 60:1 61:1 62:0 63:0 64:0 65:1 66:0 67:0 68:0 69:0 70:0 71:0 72:1 73:0 74:0 75:1 76:0 77:0 78:0 79:1 80:0 
-0.8375818947239778 1:0 2:0 3:0 4:1 5:1 6:0 7:0 8:0 9:0 10:0 11:1 12:0 13:0 14:1 15:0 16:0 17:0 18:1 19:0 20:0 21:0 22:0 23:1 24:0 25:0 26:1 27:0 28:0 29:0 30:0 31:1 32:0 33:1 34:0 35:0 36:0 37:0 38:1 39:0 40:0 41:0 42:1 43:0 44:0 45:0 46:0 47:1 48:0 49:0 50:1 51:0 52:0 53:0 54:0 55:1 56:0 57:0 58:0 59:0 60:1 61:1 62:0 63:0 64:0 65:0 66:0 67:1 68:0 69:1 70:0 71:0 72:0 73:0 74:1 75:0 76:0 77:1 78:0 79:0 80:0 
-1 1:0 2:1 3:0 4:0 5:0 6:0 7:1 8:0 9:1 10:0 11:0 12:0 13:0 14:1 15:0 16:0 17:1 18:0 19:0 20:0 21:0 22:0 23:1 24:0 25:0 26:1 27:0 28:0 29:1 30:0 31:0 32:0 33:0 34:0 35:0 36:1 37:1 38:0 39:0 40:0 41:0 42:0 43:1 44:0 45:0 46:1 47:0 48:0 49:0 50:1 51:0 52:0 53:0 54:0 55:1 56:0 57:0 58:0 59:1 60:0 61:0 62:0 63:0 64:1 65:1 66:0 67:0 68:0 69:0 70:0 71:1 72:0 73:0 74:0 75:1 76:0 77:1 78:0 79:0 80:0 
-1 1:0 2:0 3:1 4:0 5:1 6:0 7:0 8:0 9:0 10:1 11:0 12:0 13:0 14:0 15:1 16:0 17:0 18:1 19:0 20:0 21:0 22:0 23:1 24:0 25:1 26:0 27:0 28:0 29:0 30:1 31:0 32:0 33:0 34:0 35:0 36:1 37:1 38:0 39:0 40:0 41:0 42:1 43:0 44:0 45:0 46:0 47:1 48:0 49:0 50:0 51:1 52:0 53:0 54:0 55:1 56:0 57:0 58:0 59:0 60:1 61:1 62:0 63:0 64:0 65:0 66:0 67:0 68:1 69:1 70:0 71:0 72:0 73:1 74:0 75:0 76:0 77:1 78:0 79:0 80:0 
-1 1:1 2:0 3:0 4:0 5:0 6:0 7:1 8:0 9:0 10:0 11:0 12:1 13:0 14:0 15:1 16:0 17:0 18:1 19:0 20:0 21:0 22:0 23:1 24:0 25:1 26:0 27:0 28:0 29:0 30:0 31:0 32:1 33:0 34:1 35:0 36:0 37:0 38:0 39:1 40:0 41:0 42:0 43:1 44:0 45:1 46:0 47:0 48:0 49:0 50:1 51:0 52:0 53:1 54:0 55:0 56:0 57:0 58:0 59:1 60:0 61:0 62:0 63:1 64:0 65:0 66:0 67:1 68:0 69:1 70:0 71:0 72:0 73:0 74:0 75:0 76:1 77:1 78:0 79:0 80:0 
-1 1:0 2:0 3:0 4:1 5:1 6:0 7:0 8:0 9:1 10:0 11:0 12:0 13:0 14:0 15:1 16:0 17:1 18:0 19:0 20:0 21:0 22:1 23:0 24:0 25:1 26:0 27:0 28:0 29:0 30:0 31:0 32:1 33:0 34:0 35:1 36:0 37:0 38:0 39:0 40:1 41:0 42:0 43:0 44:1 45:0 46:1 47:0 48:0 49:0 50:0 51:1 52:0 53:0 54:0 55:1 56:0 57:0 58:0 59:1 60:0 61:0 62:1 63:0 64:0 65:0 66:1 67:0 68:0 69:0 70:0 71:1 72:0 73:0 74:0 75:0 76:1 77:0 78:0 79:0 80:1 
-1 1:0 2:1 3:0 4:0 5:0 6:0 7:1 8:0 9:0 10:1 11:0 12:0 13:0 14:0 15:0 16:1 17:0 18:0 19:1 20:0 21:0 22:0 23:0 24:1 25:0 26:1 27:0 28:0 29:0 30:1 31:0 32:0 33:0 34:1 35:0 36:0 37:0 38:0 39:0 40:1 41:0 42:1 43:0 44:0 45:1 46:0 47:0 48:0 49:0 50:0 51:0 52:1 53:0 54:1 55:0 56:0 57:1 58:0 59:0 60:0 61:0 62:0 63:1 64:0 65:0 66:0 67:1 68:0 69:1 70:0 71:0 72:0 73:0 74:0 75:0 76:1 77:0 78:0 79:1 80:0 
-1 1:0 2:0 3:1 4:0 5:0 6:0 7:0 8:1 9:0 10:0 11:1 12:0 13:0 14:0 15:0 16:1 17:0 18:0 19:0 20:1 21:0 22:0 23:1 24:0 25:0 26:0 27:0 28:1 29:1 30:0 31:0 32:0 33:0 34:0 35:0 36:1 37:0 38:1 39:0 40:0 41:0 42:0 43:0 44:1 45:1 46:0 47:0 48:0 49:0 50:0 51:0 52:1 53:0 54:0 55:1 56:0 57:0 58:1 59:0 60:0 61:0 62:0 63:0 64:1 65:0 66:1 67:0 68:0 69:1 70:0 71:0 72:0 73:0 74:0 75:1 76:0 77:0 78:1 79:0 80:0 
-1 1:0 2:1 3:0 4:0 5:1 6:0 7:0 8:0 9:0 10:1 11:0 12:0 13:1 14:0 15:0 16:0 17:1 18:0 19:0 20:0 21:1 22:0 23:0 24:0 25:0 26:0 27:1 28:0 29:0 30:1 31:0 32:0 33:0 34:0 35:0 36:1 37:0 38:0 39:1 40:0 41:0 42:0 43:1 44:0 45:0 46:1 47:0 48:0 49:0 50:0 51:0 52:1 53:0 54:0 55:1 56:0 57:0 58:0 59:0 60:1 61:0 62:0 63:1 64:0 65:1 66:0 67:0 68:0 69:0 70:1 71:0 72:0 73:0 74:0 75:0 76:1 77:0 78:0 79:1 80:0 
-1 1:0 2:0 3:0 4:1 5:0 6:0 7:1 8:0 9:0 10:0 11:0 12:1 13:1 14:0 15:0 16:0 17:0 18:0 19:0 20:1 21:1 22:0 23:0 24:0 25:1 26:0 27:0 28:0 29:0 30:0 31:1 32:0 33:1 34:0 35:0 36:0 37:0 38:1 39:0 40:0 41:0 42:1 43:0 44:0 45:0 46:0 47:1 48:0 49:1 50:0 51:0 52:0 53:0 54:1 55:0 56:0 57:0 58:0 59:1 60:0 61:1 62:0 63:0 64:0 65:0 66:1 67:0 68:0 69:0 70:0 71:0 72:1 73:0 74:0 75:1 76:0 77:0 78:0 79:1 80:0 
-1 1:0 2:0 3:0 4:1 5:0 6:0 7:0 8:1 9:0 10:0 11:1 12:0 13:0 14:1 15:0 16:0 17:0 18:0 19:1 20:0 21:0 22:1 23:0 24:0 25:0 26:0 27:1 28:0 29:1 30:0 31:0 32:0 33:0 34:0 35:1 36:0 37:0 38:0 39:0 40:1 41:0 42:0 43:1 44:0 45:0 46:0 47:1 48:0 49:1 50:0 51:0 52:0 53:0 54:1 55:0 56:0 57:0 58:0 59:1 60:0 61:0 62:0 63:0 64:1 65:0 66:1 67:0 68:0 69:1 70:0 71:0 72:0 73:0 74:0 75:0 76:1 77:0 78:0 79:0 80:1 
-1 1:0 2:1 3:0 4:0 5:1 6:0 7:0 8:0 9:0 10:0 11:0 12:1 13:1 14:0 15:0 16:0 17:0 18:0 19:0 20:1 21:0 22:1 23:0 24:0 25:1 26:0 27:0 28:0 29:0 30:0 31:1 32:0 33:1 34:0 35:0 36:0 37:0 38:1 39:0 40:0 41:0 42:0 43:1 44:0 45:0 46:0 47:0 48:1 49:0 50:1 51:0 52:0 53:0 54:0 55:0 56:1 57:1 58:0 59:0 60:0 61:0 62:0 63:0 64:1 65:0 66:0 67:1 68:0 69:1 70:0 71:0 72:0 73:1 74:0 75:0 76:0 77:0 78:1 79:0 80:0 
-1 1:0 2:1 3:0 4:0 5:0 6:0 7:1 8:0 9:0 10:1 11:0 12:0 13:0 14:1 15:0 16:0 17:1 18:0 19:0 20:0 21:1 22:0 23:0 24:0 25:0 26:1 27:0 28:0 29:0 30:0 31:1 32:0 33:0 34:0 35:0 36:1 37:0 38:0 39:1 40:0 41:1 42:0 43:0 44:0 45:0 46:1 47:0 48:0 49:0 50:1 51:0 52:0 53:1 54:0 55:0 56:0 57:0 58:1 59:0 60:0 61:0 62:0 63:0 64:1 65:1 66:0 67:0 68:0 69:0 70:0 71:1 72:0 73:0 74:0 75:1 76:0 77:1 78:0 79:0 80:0 
-1 1:0 2:1 3:0 4:0 5:0 6:0 7:1 8:0 9:1 10:0 11:0 12:0 13:0 14:1 15:0 16:0 17:0 18:1 19:0 20:0 21:1 22:0 23:0 24:0 25:0 26:0 27:1 28:0 29:1 30:0 31:0 32:0 33:1 34:0 35:0 36:0 37:0 38:0 39:0 40:1 41:0 42:1 43:0 44:0 45:1 46:0 47:0 48:0 49:0 50:1 51:0 52:0 53:0 54:0 55:1 56:0 57:1 58:0 59:0 60:0 61:0 62:0 63:0 64:1 65:0 66:1 67:0 68:0 69:1 70:0 71:0 72:0 73:0 74:0 75:1 76:0 77:0 78:0 79:1 80:0 
-1 1:1 2:0 3:0 4:0 5:0 6:0 7:0 8:1 9:0 10:0 11:1 12:0 13:1 14:0 15:0 16:0 17:0 18:0 19:0 20:1 21:0 22:0 23:1 24:0 25:0 26:1 27:0 28:0 29:0 30:1 31:0 32:0 33:0 34:0 35:1 36:0 37:1 38:0 39:0 40:0 41:1 42:0 43:0 44:0 45:1 46:0 47:0 48:0 49:0 50:0 51:1 52:0 53:0 54:0 55:0 56:1 57:0 58:0 59:1 60:0 61:0 62:0 63:0 64:1 65:1 66:0 67:0 68:0 69:0 70:0 71:1 72:0 73:0 74:0 75:0 76:1 77:1 78:0 79:0 80:0 
-1 1:1 2:0 3:0 4:0 5:0 6:0 7:1 8:0 9:1 10:0 11:0 12:0 13:1 14:0 15:0 16:0 17:1 18:0 19:0 20:0 21:0 22:0 23:1 24:0 25:1 26:0 27:0 28:0 29:0 30:0 31:0 32:1 33:0 34:0 35:0 36:1 37:1 38:0 39:0 40:0 41:0 42:0 43:1 44:0 45:1 46:0 47:0 48:0 49:0 50:0 51:1 52:0 53:0 54:0 55:1 56:0 57:0 58:0 59:1 60:0 61:1 62:0 63:0 64:0 65:0 66:0 67:0 68:1 69:0 70:0 71:1 72:0 73:1 74:0 75:0 76:0 77:1 78:0 79:0 80:0 
-1 1:0 2:0 3:1 4:0 5:0 6:0 7:0 8:1 9:0 10:1 11:0 12:0 13:0 14:0 15:1 16:0 17:0 18:1 19:0 20:0 21:0 22:1 23:0 24:0 25:0 26:1 27:0 28:0 29:0 30:0 31:0 32:1 33:0 34:1 35:0 36:0 37:1 38:0 39:0 40:0 41:0 42:1 43:0 44:0 45:0 46:1 47:0 48:0 49:0 50:0 51:1 52:0 53:0 54:1 55:0 56:0 57:1 58:0 59:0 60:0 61:0 62:0 63:1 64:0 65:1 66:0 67:0 68:0 69:0 70:0 71:1 72:0 73:1 74:0 75:0 76:0 77:0 78:0 79:0 80:1 
-1 1:0 2:0 3:1 4:0 5:1 6:0 7:0 8:0 9:0 10:0 11:0 12:1 13:0 14:0 15:0 16:1 17:1 18:0 19:0 20:0 21:1 22:0 23:0 24:0 25:1 26:0 27:0 28:0 29:0 30:0 31:1 32:0 33:0 34:0 35:0 36:1 37:0 38:1 39:0 40:0 41:0 42:1 43:0 44:0 45:0 46:0 47:0 48:1 49:0 50:0 51:0 52:1 53:0 54:1 55:0 56:0 57:1 58:0 59:0 60:0 61:0 62:0 63:0 64:1 65:1 66:0 67:0 68:0 69:0 70:1 71:0 72:0 73:0 74:1 75:0 76:0 77:0 78:1 79:0 80:0 
-1 1:0 2:0 3:0 4:1 5:0 6:0 7:1 8:0 9:1 10:0 11:0 12:0 13:0 14:1 15:0 16:0 17:1 18:0 19:0 20:0 21:0 22:0 23:1 24:0 25:1 26:0 27:0 28:0 29:1 30:0 31:0 32:0 33:0 34:0 35:0 36:1 37:0 38:0 39:0 40:1 41:0 42:0 43:1 44:0 45:0 46:1 47:0 48:0 49:0 50:1 51:0 52:0 53:0 54:1 55:0 56:0 57:0 58:0 59:0 60:1 61:0 62:0 63:0 64:1 65:0 66:0 67:0 68:1 69:1 70:0 71:0 72:0 73:0 74:0 75:1 76:0 77:0 78:0 79:1 80:0 
-1 1:0 2:1 3:0 4:0 5:0 6:0 7:1 8:0 9:0 10:1 11:0 12:0 13:0 14:1 15:0 16:0 17:1 18:0 19:0 20:0 21:0 22:1 23:0 24:0 25:0 26:0 27:0 28:1 29:0 30:1 31:0 32:0 33:0 34:1 35:0 36:0 37:1 38:0 39:0 40:0 41:0 42:0 43:1 44:0 45:0 46:0 47:0 48:1 49:0 50:0 51:1 52:0 53:0 54:0 55:0 56:1 57:0 58:0 59:0 60:1 61:1 62:0 63:0 64:0 65:1 66:0 67:0 68:0 69:0 70:0 71:0 72:1 73:0 74:0 75:1 76:0 77:0 78:0 79:1 80:0 
-0.388284295116346 1:0 2:0 3:0 4:1 5:0 6:1 7:0 8:0 9:1 10:0 11:0 12:0 13:0 14:0 15:1 16:0 17:0 18:0 19:0 20:1 21:0 22:0 23:1 24:0 25:1 26:0 27:0 28:0 29:1 30:0 31:0 32:0 33:0 34:0 35:0 36:1 37:1 38:0 39:0 40:0 41:0 42:1 43:0 44:0 45:1 46:0 47:0 48:0 49:0 50:0 51:1 52:0 53:0 54:0 55:0 56:1 57:0 58:1 59:0 60:0 61:0 62:0 63:1 64:0 65:1 66:0 67:0 68:0 69:0 70:1 71:0 72:0 73:0 74:0 75:1 76:0 77:0 78:0 79:1 80:0 
-1 1:0 2:0 3:1 4:0 5:0 6:1 7:0 8:0 9:0 10:0 11:1 12:0 13:1 14:0 15:0 16:0 17:1 18:0 19:0 20:0 21:0 22:0 23:1 24:0 25:0 26:0 27:1 28:0 29:0 30:0 31:1 32:0 33:0 34:1 35:0 36:0 37:0 38:0 39:1 40:0 41:0 42:0 43:0 44:1 45:0 46:0 47:0 48:1 49:1 50:0 51:0 52:0 53:0 54:1 55:0 56:0 57:1 58:0 59:0 60:0 61:1 62:0 63:0 64:0 65:0 66:0 67:1 68:0 69:0 70:0 71:1 72:0 73:1 74:0 75:0 76:0 77:0 78:1 79:0 80:0 
-1 1:1 2:0 3:0 4:0 5:0 6:0 7:0 8:1 9:1 10:0 11:0 12:0 13:0 14:0 15:1 16:0 17:0 18:0 19:0 20:1 21:0 22:0 23:0 24:1 25:0 26:1 27:0 28:0 29:1 30:0 31:0 32:0 33:0 34:0 35:1 36:0 37:0 38:1 39:0 40:0 41:0 42:0 43:1 44:0 45:1 46:0 47:0 48:0 49:0 50:1 51:0 52:0 53:1 54:0 55:0 56:0 57:0 58:1 59:0 60:0 61:1 62:0 63:0 64:0 65:1 66:0 67:0 68:0 69:0 70:0 71:0 72:1 73:0 74:0 75:0 76:1 77:1 78:0 79:0 80:0 
-1 1:1 2:0 3:0 4:0 5:0 6:0 7:0 8:1 9:0 10:1 11:0 12:0 13:0 14:1 15:0 16:0 17:0 18:0 19:1 20:0 21:0 22:1 23:0 24:0 25:1 26:0 27:0 28:0 29:0 30:1 31:0 32:0 33:0 34:0 35:1 36:0 37:0 38:0 39:0 40:1 41:1 42:0 43:0 44:0 45:0 46:0 47:1 48:0 49:0 50:1 51:0 52:0 53:0 54:0 55:0 56:1 57:0 58:0 59:1 60:0 61:1 62:0 63:0 64:0 65:0 66:0 67:0 68:1 69:1 70:0 71:0 72:0 73:0 74:1 75:0 76:0 77:0 78:0 79:0 80:1 
-1 1:0 2:0 3:0 4:1 5:0 6:1 7:0 8:0 9:1 10:0 11:0 12:0 13:0 14:0 15:0 16:1 17:0 18:1 19:0 20:0 21:0 22:0 23:1 24:0 25:0 26:1 27:0 28:0 29:0 30:1 31:0 32:0 33:0 34:0 35:1 36:0 37:0 38:0 39:0 40:1 41:0 42:0 43:0 44:1 45:1 46:0 47:0 48:0 49:0 50:1 51:0 52:0 53:0 54:0 55:0 56:1 57:1 58:0 59:0 60:0 61:0 62:0 63:1 64:0 65:1 66:0 67:0 68:0 69:1 70:0 71:0 72:0 73:0 74:0 75:0 76:1 77:0 78:0 79:0 80:1 
-1 1:0 2:1 3:0 4:0 5:1 6:0 7:0 8:0 9:0 10:0 11:1 12:0 13:1 14:0 15:0 16:0 17:1 18:0 19:0 20:0 21:0 22:0 23:1 24:0 25:1 26:0 27:0 28:0 29:0 30:0 31:1 32:0 33:0 34:0 35:0 36:1 37:1 38:0 39:0 40:0 41:0 42:0 43:0 44:1 45:0 46:0 47:1 48:0 49:0 50:0 51:0 52:1 53:0 54:1 55:0 56:0 57:0 58:0 59:0 60:1 61:0 62:0 63:1 64:0 65:0 66:0 67:0 68:1 69:1 70:0 71:0 72:0 73:0 74:0 75:1 76:0 77:0 78:1 79:0 80:0 
-1 1:0 2:0 3:1 4:0 5:1 6:0 7:0 8:0 9:1 10:0 11:0 12:0 13:0 14:0 15:0 16:1 17:1 18:0 19:0 20:0 21:0 22:0 23:1 24:0 25:1 26:0 27:0 28:0 29:0 30:1 31:0 32:0 33:1 34:0 35:0 36:0 37:0 38:1 39:0 40:0 41:1 42:0 43:0 44:0 45:0 46:0 47:1 48:0 49:0 50:1 51:0 52:0 53:1 54:0 55:0 56:0 57:0 58:0 59:0 60:1 61:1 62:0 63:0 64:0 65:0 66:0 67:0 68:1 69:0 70:0 71:1 72:0 73:1 74:0 75:0 76:0 77:0 78:0 79:1 80:0 
-0.1859901818456719 1:0 2:0 3:0 4:1 5:1 6:0 7:0 8:0 9:0 10:1 11:0 12:0 13:1 14:0 15:0 16:0 17:0 18:0 19:1 20:0 21:1 22:0 23:0 24:0 25:1 26:0 27:0 28:0 29:1 30:0 31:0 32:0 33:1 34:0 35:0 36:0 37:0 38:0 39:1 40:0 41:1 42:0 43:0 44:0 45:0 46:1 47:0 48:0 49:0 50:0 51:0 52:1 53:0 54:0 55:1 56:0 57:0 58:0 59:0 60:1 61:0 62:1 63:0 64:0 65:0 66:0 67:1 68:0 69:0 70:1 71:0 72:0 73:0 74:0 75:1 76:0 77:0 78:0 79:1 80:0 
-1 1:0 2:0 3:0 4:1 5:1 6:0 7:0 8:0 9:0 10:0 11:0 12:1 13:0 14:0 15:1 16:0 17:0 18:0 19:0 20:1 21:1 22:0 23:0 24:0 25:0 26:0 27:0 28:1 29:0 30:0 31:1 32:0 33:0 34:0 35:0 36:1 37:0 38:0 39:1 40:0 41:0 42:1 43:0 44:0 45:0 46:0 47:1 48:0 49:1 50:0 51:0 52:0 53:1 54:0 55:0 56:0 57:0 58:1 59:0 60:0 61:0 62:0 63:0 64:1 65:1 66:0 67:0 68:0 69:0 70:0 71:1 72:0 73:0 74:0 75:0 76:1 77:0 78:0 79:0 80:1 
-1 1:1 2:0 3:0 4:0 5:0 6:1 7:0 8:0 9:1 10:0 11:0 12:0 13:0 14:0 15:1 16:0 17:0 18:0 19:0 20:1 21:1 22:0 23:0 24:0 25:1 26:0 27:0 28:0 29:0 30:1 31:0 32:0 33:0 34:0 35:1 36:0 37:1 38:0 39:0 40:0 41:0 42:1 43:0 44:0 45:0 46:1 47:0 48:0 49:1 50:0 51:0 52:0 53:0 54:0 55:1 56:0 57:0 58:0 59:0 60:1 61:1 62:0 63:0 64:0 65:1 66:0 67:0 68:0 69:1 70:0 71:0 72:0 73:0 74:0 75:1 76:0 77:1 78:0 79:0 80:0 
-1 1:0 2:1 3:0 4:0 5:0 6:0 7:0 8:1 9:0 10:0 11:0 12:1 13:0 14:0 15:0 16:1 17:1 18:0 19:0 20:0 21:0 22:0 23:0 24:1 25:0 26:0 27:0 28:1 29:0 30:0 31:1 32:0 33:0 34:0 35:0 36:1 37:1 38:0 39:0 40:0 41:0 42:1 43:0 44:0 45:0 46:0 47:1 48:0 49:1 50:0 51:0 52:0 53:0 54:1 55:0 56:0 57:1 58:0 59:0 60:0 61:0 62:0 63:0 64:1 65:0 66:1 67:0 68:0 69:0 70:0 71:1 72:0 73:0 74:0 75:1 76:0 77:0 78:0 79:1 80:0 
-1 1:1 2:0 3:0 4:0 5:1 6:0 7:0 8:0 9:0 10:0 11:0 12:1 13:0 14:1 15:0 16:0 17:0 18:0 19:1 20:0 21:0 22:0 23:0 24:1 25:1 26:0 27:0 28:0 29:0 30:0 31:1 32:0 33:0 34:0 35:1 36:0 37:0 38:0 39:0 40:1 41:0 42:0 43:1 44:0 45:0 46:1 47:0 48:0 49:0 50:1 51:0 52:0 53:0 54:0 55:1 56:0 57:0 58:1 59:0 60:0 61:0 62:0 63:0 64:1 65:0 66:0 67:1 68:0 69:1 70:0 71:0 72:0 73:1 74:0 75:0 76:0 77:0 78:0 79:0 80:1 
-1 1:1 2:0 3:0 4:0 5:0 6:1 7:0 8:0 9:0 10:0 11:0 12:1 13:0 14:1 15:0 16:0 17:0 18:0 19:1 20:0 21:0 22:0 23:0 24:1 25:0 26:0 27:0 28:1 29:0 30:0 31:1 32:0 33:0 34:0 35:0 36:1 37:0 38:0 39:0 40:1 41:0 42:0 43:1 44:0 45:0 46:0 47:0 48:1 49:0 50:0 51:1 52:0 53:0 54:0 55:0 56:1 57:0 58:0 59:1 60:0 61:1 62:0 63:0 64:0 65:0 66:1 67:0 68:0 69:0 70:1 71:0 72:0 73:0 74:0 75:1 76:0 77:0 78:0 79:1 80:0 
-1 1:1 2:0 3:0 4:0 5:0 6:0 7:0 8:1 9:0 10:0 11:0 12:1 13:0 14:1 15:0 16:0 17:0 18:0 19:1 20:0 21:0 22:0 23:0 24:1 25:0 26:0 27:0 28:1 29:1 30:0 31:0 32:0 33:0 34:0 35:0 36:1 37:0 38:0 39:1 40:0 41:1 42:0 43:0 44:0 45:0 46:0 47:0 48:1 49:0 50:0 51:1 52:0 53:0 54:0 55:0 56:1 57:0 58:0 59:0 60:1 61:1 62:0 63:0 64:0 65:0 66:0 67:0 68:1 69:0 70:0 71:0 72:1 73:0 74:0 75:1 76:0 77:0 78:0 79:1 80:0 
-1 1:0 2:0 3:0 4:1 5:0 6:1 7:0 8:0 9:1 10:0 11:0 12:0 13:1 14:0 15:0 16:0 17:0 18:0 19:1 20:0 21:1 22:0 23:0 24:0 25:1 26:0 27:0 28:0 29:0 30:0 31:0 32:1 33:0 34:1 35:0 36:0 37:1 38:0 39:0 40:0 41:0 42:0 43:0 44:1 45:1 46:0 47:0 48:0 49:0 50:0 51:1 52:0 53:0 54:0 55:1 56:0 57:0 58:0 59:0 60:1 61:0 62:0 63:1 64:0 65:0 66:1 67:0 68:0 69:0 70:0 71:1 72:0 73:0 74:0 75:0 76:1 77:0 78:0 79:0 80:1 
-1 1:0 2:0 3:1 4:0 5:1 6:0 7:0 8:0 9:0 10:0 11:1 12:0 13:0 14:0 15:0 16:1 17:0 18:1 19:0 20:0 21:0 22:0 23:1 24:0 25:0 26:0 27:1 28:0 29:0 30:0 31:1 32:0 33:0 34:0 35:0 36:1 37:0 38:0 39:0 40:1 41:0 42:0 43:1 44:0 45:1 46:0 47:0 48:0 49:0 50:1 51:0 52:0 53:0 54:0 55:1 56:0 57:1 58:0 59:0 60:0 61:0 62:0 63:0 64:1 65:0 66:0 67:1 68:0 69:1 70:0 71:0 72:0 73:1 74:0 75:0 76:0 77:1 78:0 79:0 80:0 
-1 1:1 2:0 3:0 4:0 5:1 6:0 7:0 8:0 9:0 10:0 11:0 12:1 13:0 14:1 15:0 16:0 17:0 18:0 19:1 20:0 21:0 22:0 23:0 24:1 25:0 26:0 27:1 28:0 29:0 30:1 31:0 32:0 33:0 34:1 35:0 36:0 37:0 38:0 39:1 40:0 41:1 42:0 43:0 44:0 45:0 46:0 47:1 48:0 49:1 50:0 51:0 52:0 53:0 54:0 55:1 56:0 57:0 58:0 59:0 60:1 61:0 62:0 63:1 64:0 65:1 66:0 67:0 68:0 69:0 70:0 71:1 72:0 73:0 74:1 75:0 76:0 77:0 78:0 79:1 80:0 
-0.1540281762826065 1:0 2:0 3:1 4:0 5:0 6:1 7:0 8:0 9:0 10:0 11:1 12:0 13:1 14:0 15:0 16:0 17:1 18:0 19:0 20:0 21:1 22:0 23:0 24:0 25:1 26:0 27:0 28:0 29:1 30:0 31:0 32:0 33:0 34:0 35:0 36:1 37:0 38:0 39:1 40:0 41:0 42:0 43:1 44:0 45:1 46:0 47:0 48:0 49:1 50:0 51:0 52:0 53:0 54:1 55:0 56:0 57:0 58:0 59:0 60:1 61:1 62:0 63:0 64:0 65:1 66:0 67:0 68:0 69:0 70:1 71:0 72:0 73:0 74:0 75:0 76:1 77:0 78:0 79:0 80:1 
-1 1:0 2:0 3:1 4:0 5:1 6:0 7:0 8:0 9:0 10:1 11:0 12:0 13:0 14:1 15:0 16:0 17:0 18:1 19:0 20:0 21:0 22:1 23:0 24:0 25:0 26:0 27:1 28:0 29:0 30:0 31:1 32:0 33:0 34:0 35:1 36:0 37:0 38:1 39:0 40:0 41:0 42:0 43:0 44:1 45:0 46:0 47:0 48:1 49:0 50:0 51:0 52:1 53:1 54:0 55:0 56:0 57:0 58:0 59:0 60:1 61:0 62:1 63:0 64:0 65:0 66:0 67:0 68:1 69:0 70:0 71:0 72:1 73:1 74:0 75:0 76:0 77:0 78:0 79:1 80:0 
-1 1:0 2:0 3:1 4:0 5:0 6:0 7:0 8:1 9:0 10:1 11:0 12:0 13:0 14:0 15:0 16:1 17:0 18:0 19:0 20:1 21:1 22:0 23:0 24:0 25:1 26:0 27:0 28:0 29:0 30:0 31:0 32:1 33:0 34:1 35:0 36:0 37:0 38:1 39:0 40:0 41:0 42:0 43:1 44:0 45:1 46:0 47:0 48:0 49:0 50:0 51:1 52:0 53:0 54:1 55:0 56:0 57:0 58:0 59:1 60:0 61:0 62:0 63:0 64:1 65:0 66:0 67:1 68:0 69:0 70:1 71:0 72:0 73:0 74:0 75:1 76:0 77:0 78:0 79:1 80:0 
-1 1:0 2:0 3:0 4:1 5:1 6:0 7:0 8:0 9:0 10:1 11:0 12:0 13:1 14:0 15:0 16:0 17:0 18:0 19:1 20:0 21:0 22:0 23:0 24:1 25:0 26:1 27:0 28:0 29:0 30:1 31:0 32:0 33:0 34:0 35:1 36:0 37:0 38:1 39:0 40:0 41:0 42:0 43:1 44:0 45:1 46:0 47:0 48:0 49:1 50:0 51:0 52:0 53:0 54:1 55:0 56:0 57:0 58:0 59:1 60:0 61:0 62:0 63:0 64:1 65:1 66:0 67:0 68:0 69:0 70:1 71:0 72:0 73:0 74:0 75:1 76:0 77:0 78:0 79:0 80:1 
-1 1:0 2:1 3:0 4:0 5:0 6:1 7:0 8:0 9:1 10:0 11:0 12:0 13:1 14:0 15:0 16:0 17:0 18:0 19:1 20:0 21:0 22:1 23:0 24:0 25:0 26:0 27:1 28:0 29:1 30:0 31:0 32:0 33:0 34:0 35:0 36:1 37:0 38:0 39:0 40:1 41:0 42:0 43:0 44:1 45:0 46:0 47:1 48:0 49:0 50:1 51:0 52:0 53:0 54:1 55:0 56:0 57:1 58:0 59:0 60:0 61:0 62:1 63:0 64:0 65:0 66:0 67:1 68:0 69:1 70:0 71:0 72:0 73:0 74:0 75:1 76:0 77:0 78:0 79:0 80:1 
-1 1:0 2:0 3:1 4:0 5:0 6:0 7:0 8:1 9:0 10:0 11:1 12:0 13:0 14:0 15:1 16:0 17:0 18:0 19:0 20:1 21:0 22:1 23:0 24:0 25:0 26:0 27:1 28:0 29:1 30:0 31:0 32:0 33:0 34:1 35:0 36:0 37:1 38:0 39:0 40:0 41:1 42:0 43:0 44:0 45:1 46:0 47:0 48:0 49:1 50:0 51:0 52:0 53:0 54:0 55:1 56:0 57:0 58:1 59:0 60:0 61:0 62:0 63:1 64:0 65:0 66:1 67:0 68:0 69:0 70:0 71:0 72:1 73:0 74:0 75:1 76:0 77:0 78:0 79:1 80:0 
-1 1:0 2:0 3:1 4:0 5:0 6:0 7:0 8:1 9:0 10:1 11:0 12:0 13:0 14:0 15:1 16:0 17:0 18:0 19:0 20:1 21:0 22:1 23:0 24:0 25:0 26:0 27:1 28:0 29:0 30:0 31:1 32:0 33:1 34:0 35:0 36:0 37:0 38:0 39:1 40:0 41:0 42:1 43:0 44:0 45:0 46:0 47:1 48:0 49:0 50:0 51:0 52:1 53:0 54:0 55:0 56:1 57:0 58:0 59:1 60:0 61:0 62:0 63:1 64:0 65:1 66:0 67:0 68:0 69:0 70:1 71:0 72:0 73:1 74:0 75:0 76:0 77:0 78:0 79:1 80:0 
-1 1:0 2:1 3:0 4:0 5:0 6:0 7:1 8:0 9:1 10:0 11:0 12:0 13:0 14:1 15:0 16:0 17:1 18:0 19:0 20:0 21:0 22:0 23:0 24:1 25:0 26:1 27:0 28:0 29:0 30:0 31:0 32:1 33:1 34:0 35:0 36:0 37:1 38:0 39:0 40:0 41:0 42:1 43:0 44:0 45:1 46:0 47:0 48:0 49:0 50:0 51:0 52:1 53:0 54:0 55:1 56:0 57:0 58:0 59:1 60:0 61:0 62:1 63:0 64:0 65:1 66:0 67:0 68:0 69:1 70:0 71:0 72:0 73:0 74:0 75:0 76:1 77:1 78:0 79:0 80:0 
-1 1:1 2:0 3:0 4:0 5:1 6:0 7:0 8:0 9:0 10:1 11:0 12:0 13:0 14:0 15:1 16:0 17:0 18:1 19:0 20:0 21:1 22:0 23:0 24:0 25:0 26:0 27:0 28:1 29:0 30:0 31:1 32:0 33:0 34:0 35:1 36:0 37:0 38:0 39:1 40:0 41:0 42:0 43:0 44:1 45:0 46:0 47:0 48:1 49:0 50:1 51:0 52:0 53:0 54:1 55:0 56:0 57:0 58:0 59:0 60:1 61:0 62:0 63:0 64:1 65:0 66:0 67:1 68:0 69:0 70:0 71:0 72:1 73:0 74:0 75:1 76:0 77:0 78:0 79:0 80:1 
-1 1:0 2:1 3:0 4:0 5:0 6:0 7:1 8:0 9:0 10:0 11:0 12:1 13:0 14:0 15:0 16:1 17:0 18:0 19:0 20:1 21:0 22:0 23:0 24:1 25:0 26:1 27:0 28:0 29:1 30:0 31:0 32:0 33:0 34:1 35:0 36:0 37:0 38:1 39:0 40:0 41:0 42:0 43:1 44:0 45:0 46:0 47:0 48:1 49:0 50:0 51:1 52:0 53:0 54:1 55:0 56:0 57:0 58:0 59:0 60:1 61:1 62:0 63:0 64:0 65:0 66:0 67:1 68:0 69:0 70:1 71:0 72:0 73:1 74:0 75:0 76:0 77:0 78:0 79:1 80:0 
-1 1:1 2:0 3:0 4:0 5:0 6:0 7:1 8:0 9:1 10:0 11:0 12:0 13:0 14:0 15:1 16:0 17:0 18:1 19:0 20:0 21:1 22:0 23:0 24:0 25:0 26:0 27:1 28:0 29:0 30:1 31:0 32:0 33:1 34:0 35:0 36:0 37:0 38:0 39:1 40:0 41:0 42:0 43:0 44:1 45:1 46:0 47:0 48:0 49:0 50:0 51:1 52:0 53:1 54:0 55:0 56:0 57:0 58:0 59:1 60:0 61:0 62:1 63:0 64:0 65:0 66:0 67:1 68:0 69:0 70:1 71:0 72:0 73:0 74:0 75:0 76:1 77:1 78:0 79:0 80:0 
-1 1:1 2:0 3:0 4:0 5:1 6:0 7:0 8:0 9:0 10:0 11:1 12:0 13:1 14:0 15:0 16:0 17:0 18:0 19:1 20:0 21:0 22:0 23:1 24:0 25:0 26:1 27:0 28:0 29:1 30:0 31:0 32:0 33:0 34:0 35:0 36:1 37:1 38:0 39:0 40:0 41:1 42:0 43:0 44:0 45:1 46:0 47:0 48:0 49:0 50:0 51:1 52:0 53:0 54:0 55:1 56:0 57:0 58:0 59:1 60:0 61:1 62:0 63:0 64:0 65:0 66:1 67:0 68:0 69:0 70:0 71:1 72:0 73:0 74:0 75:0 76:1 77:0 78:0 79:1 80:0 
-1 1:1 2:0 3:0 4:0 5:1 6:0 7:0 8:0 9:1 10:0 11:0 12:0 13:0 14:0 15:1 16:0 17:0 18:0 19:0 20:1 21:1 22:0 23:0 24:0 25:0 26:0 27:0 28:1 29:0 30:0 31:0 32:1 33:0 34:0 35:1 36:0 37:0 38:1 39:0 40:0 41:0 42:0 43:0 44:1 45:0 46:0 47:1 48:0 49:0 50:0 51:1 52:0 53:0 54:0 55:1 56:0 57:1 58:0 59:0 60:0 61:0 62:0 63:1 64:0 65:1 66:0 67:0 68:0 69:0 70:1 71:0 72:0 73:0 74:0 75:0 76:1 77:1 78:0 79:0 80:0 
-1 1:0 2:0 3:1 4:0 5:1 6:0 7:0 8:0 9:0 10:0 11:0 12:1 13:0 14:0 15:0 16:1 17:0 18:0 19:0 20:1 21:0 22:1 23:0 24:0 25:0 26:1 27:0 28:0 29:0 30:1 31:0 32:0 33:1 34:0 35:0 36:0 37:0 38:0 39:1 40:0 41:0 42:0 43:1 44:0 45:0 46:0 47:1 48:0 49:1 50:0 51:0 52:0 53:0 54:0 55:0 56:1 57:0 58:1 59:0 60:0 61:0 62:1 63:0 64:0 65:1 66:0 67:0 68:0 69:0 70:0 71:0 72:1 73:0 74:0 75:1 76:0 77:0 78:0 79:0 80:1 
-1 1:0 2:1 3:0 4:0 5:0 6:0 7:1 8:0 9:0 10:0 11:1 12:0 13:1 14:0 15:0 16:0 17:0 18:0 19:1 20:0 21:0 22:0 23:1 24:0 25:0 26:1 27:0 28:0 29:1 30:0 31:0 32:0 33:0 34:0 35:1 36:0 37:1 38:0 39:0 40:0 41:0 42:0 43:0 44:1 45:1 46:0 47:0 48:0 49:1 50:0 51:0 52:0 53:0 54:0 55:1 56:0 57:0 58:0 59:0 60:1 61:0 62:0 63:1 64:0 65:1 66:0 67:0 68:0 69:0 70:1 71:0 72:0 73:0 74:0 75:0 76:1 77:0 78:0 79:0 80:1 
-1 1:0 2:0 3:1 4:0 5:0 6:0 7:1 8:0 9:0 10:0 11:1 12:0 13:0 14:0 15:1 16:0 17:1 18:0 19:0 20:0 21:0 22:0 23:0 24:1 25:0 26:0 27:1 28:0 29:1 30:0 31:0 32:0 33:1 34:0 35:0 36:0 37:0 38:0 39:1 40:0 41:1 42:0 43:0 44:0 45:0 46:0 47:1 48:0 49:0 50:0 51:1 52:0 53:0 54:0 55:0 56:1 57:1 58:0 59:0 60:0 61:0 62:0 63:1 64:0 65:0 66:1 67:0 68:0 69:0 70:0 71:0 72:1 73:0 74:0 75:1 76:0 77:0 78:0 79:1 80:0 
-1 1:1 2:0 3:0 4:0 5:0 6:0 7:0 8:1 9:0 10:0 11:0 12:1 13:0 14:0 15:0 16:1 17:0 18:0 19:1 20:0 21:0 22:0 23:0 24:1 25:1 26:0 27:0 28:0 29:0 30:0 31:1 32:0 33:0 34:1 35:0 36:0 37:0 38:0 39:1 40:0 41:1 42:0 43:0 44:0 45:0 46:1 47:0 48:0 49:0 50:1 51:0 52:0 53:1 54:0 55:0 56:0 57:0 58:1 59:0 60:0 61:0 62:0 63:0 64:1 65:0 66:0 67:1 68:0 69:0 70:0 71:1 72:0 73:1 74:0 75:0 76:0 77:0 78:0 79:1 80:0 
-0.7050550936431693 1:0 2:0 3:1 4:0 5:0 6:1 7:0 8:0 9:0 10:1 11:0 12:0 13:1 14:0 15:0 16:0 17:1 18:0 19:0 20:0 21:0 22:0 23:1 24:0 25:0 26:0 27:1 28:0 29:1 30:0 31:0 32:0 33:0 34:1 35:0 36:0 37:0 38:1 39:0 40:0 41:1 42:0 43:0 44:0 45:0 46:1 47:0 48:0 49:1 50:0 51:0 52:0 53:0 54:0 55:0 56:1 57:0 58:0 59:1 60:0 61:0 62:1 63:0 64:0 65:0 66:0 67:1 68:0 69:0 70:1 71:0 72:0 73:0 74:0 75:1 76:0 77:0 78:0 79:0 80:1 
-1 1:0 2:0 3:1 4:0 5:0 6:0 7:0 8:1 9:0 10:0 11:1 12:0 13:1 14:0 15:0 16:0 17:1 18:0 19:0 20:0 21:0 22:0 23:0 24:1 25:0 26:0 27:0 28:1 29:1 30:0 31:0 32:0 33:0 34:0 35:0 36:1 37:0 38:0 39:1 40:0 41:0 42:0 43:0 44:1 45:0 46:1 47:0 48:0 49:1 50:0 51:0 52:0 53:0 54:0 55:0 56:1 57:1 58:0 59:0 60:0 61:0 62:1 63:0 64:0 65:0 66:0 67:1 68:0 69:0 70:0 71:1 72:0 73:0 74:0 75:1 76:0 77:0 78:0 79:0 80:1 
-0.9950850620034279 1:0 2:0 3:1 4:0 5:1 6:0 7:0 8:0 9:0 10:1 11:0 12:0 13:0 14:0 15:1 16:0 17:1 18:0 19:0 20:0 21:0 22:0 23:1 24:0 25:1 26:0 27:0 28:0 29:1 30:0 31:0 32:0 33:0 34:1 35:0 36:0 37:0 38:0 39:0 40:1 41:1 42:0 43:0 44:0 45:0 46:0 47:0 48:1 49:0 50:1 51:0 52:0 53:0 54:0 55:0 56:1 57:0 58:0 59:1 60:0 61:0 62:0 63:1 64:0 65:0 66:0 67:1 68:0 69:0 70:1 71:0 72:0 73:0 74:0 75:1 76:0 77:0 78:1 79:0 80:0 
-1 1:0 2:0 3:1 4:0 5:0 6:0 7:0 8:1 9:0 10:1 11:0 12:0 13:0 14:1 15:0 16:0 17:1 18:0 19:0 20:0 21:1 22:0 23:0 24:0 25:0 26:0 27:0 28:1 29:0 30:0 31:1 32:0 33:0 34:1 35:0 36:0 37:0 38:0 39:1 40:0 41:0 42:1 43:0 44:0 45:1 46:0 47:0 48:0 49:0 50:0 51:1 52:0 53:1 54:0 55:0 56:0 57:0 58:0 59:1 60:0 61:0 62:0 63:1 64:0 65:0 66:0 67:0 68:1 69:0 70:1 71:0 72:0 73:0 74:0 75:0 76:1 77:1 78:0 79:0 80:0 
-1 1:1 2:0 3:0 4:0 5:1 6:0 7:0 8:0 9:1 10:0 11:0 12:0 13:1 14:0 15:0 16:0 17:0 18:1 19:0 20:0 21:1 22:0 23:0 24:0 25:1 26:0 27:0 28:0 29:0 30:1 31:0 32:0 33:0 34:0 35:1 36:0 37:0 38:0 39:1 40:0 41:0 42:0 43:0 44:1 45:0 46:1 47:0 48:0 49:0 50:0 51:0 52:1 53:0 54:0 55:0 56:1 57:0 58:0 59:0 60:1 61:1 62:0 63:0 64:0 65:0 66:0 67:1 68:0 69:0 70:0 71:1 72:0 73:0 74:0 75:1 76:0 77:0 78:0 79:0 80:1 
-1 1:0 2:0 3:0 4:1 5:0 6:0 7:1 8:0 9:0 10:0 11:0 12:1 13:0 14:0 15:0 16:1 17:0 18:0 19:1 20:0 21:0 22:1 23:0 24:0 25:0 26:1 27:0 28:0 29:0 30:0 31:1 32:0 33:0 34:0 35:1 36:0 37:0 38:1 39:0 40:0 41:0 42:1 43:0 44:0 45:0 46:0 47:1 48:0 49:1 50:0 51:0 52:0 53:1 54:0 55:0 56:0 57:0 58:0 59:0 60:1 61:1 62:0 63:0 64:0 65:0 66:1 67:0 68:0 69:0 70:0 71:1 72:0 73:0 74:1 75:0 76:0 77:1 78:0 79:0 80:0 
-1 1:0 2:0 3:1 4:0 5:0 6:0 7:0 8:1 9:0 10:0 11:1 12:0 13:0 14:0 15:1 16:0 17:0 18:0 19:1 20:0 21:0 22:0 23:0 24:1 25:1 26:0 27:0 28:0 29:0 30:1 31:0 32:0 33:0 34:0 35:0 36:1 37:0 38:0 39:1 40:0 41:0 42:0 43:0 44:1 45:0 46:0 47:1 48:0 49:0 50:0 51:1 52:0 53:0 54:0 55:0 56:1 57:0 58:0 59:1 60:0 61:1 62:0 63:0 64:0 65:0 66:0 67:1 68:0 69:0 70:1 71:0 72:0 73:1 74:0 75:0 76:0 77:0 78:0 79:0 80:1 
-1 1:0 2:0 3:1 4:0 5:0 6:0 7:0 8:1 9:1 10:0 11:0 12:0 13:1 14:0 15:0 16:0 17:0 18:1 19:0 20:0 21:0 22:1 23:0 24:0 25:0 26:0 27:1 28:0 29:0 30:1 31:0 32:0 33:0 34:1 35:0 36:0 37:1 38:0 39:0 40:0 41:1 42:0 43:0 44:0 45:0 46:1 47:0 48:0 49:0 50:0 51:1 52:0 53:0 54:0 55:1 56:0 57:0 58:1 59:0 60:0 61:0 62:0 63:1 64:0 65:0 66:0 67:0 68:1 69:1 70:0 71:0 72:0 73:1 74:0 75:0 76:0 77:0 78:0 79:0 80:1 
-1 1:1 2:0 3:0 4:0 5:0 6:0 7:1 8:0 9:0 10:0 11:1 12:0 13:0 14:0 15:1 16:0 17:0 18:0 19:0 20:1 21:1 22:0 23:0 24:0 25:0 26:0 27:1 28:0 29:0 30:0 31:1 32:0 33:1 34:0 35:0 36:0 37:0 38:0 39:1 40:0 41:1 42:0 43:0 44:0 45:0 46:0 47:0 48:1 49:1 50:0 51:0 52:0 53:1 54:0 55:0 56:0 57:0 58:0 59:1 60:0 61:0 62:0 63:1 64:0 65:0 66:1 67:0 68:0 69:1 70:0 71:0 72:0 73:1 74:0 75:0 76:0 77:0 78:1 79:0 80:0 
-1 1:0 2:0 3:0 4:1 5:1 6:0 7:0 8:0 9:0 10:0 11:1 12:0 13:0 14:0 15:1 16:0 17:0 18:0 19:1 20:0 21:1 22:0 23:0 24:0 25:0 26:0 27:1 28:0 29:0 30:0 31:1 32:0 33:0 34:1 35:0 36:0 37:1 38:0 39:0 40:0 41:0 42:0 43:1 44:0 45:0 46:1 47:0 48:0 49:0 50:0 51:1 52:0 53:0 54:1 55:0 56:0 57:0 58:0 59:0 60:1 61:0 62:1 63:0 64:0 65:1 66:0 67:0 68:0 69:0 70:0 71:0 72:1 73:1 74:0 75:0 76:0 77:0 78:0 79:0 80:1 
-1 1:1 2:0 3:0 4:0 5:0 6:0 7:0 8:1 9:0 10:0 11:0 12:1 13:0 14:0 15:0 16:1 17:1 18:0 19:0 20:0 21:1 22:0 23:0 24:0 25:0 26:0 27:0 28:1 29:1 30:0 31:0 32:0 33:1 34:0 35:0 36:0 37:1 38:0 39:0 40:0 41:1 42:0 43:0 44:0 45:1 46:0 47:0 48:0 49:0 50:0 51:0 52:1 53:0 54:0 55:0 56:1 57:1 58:0 59:0 60:0 61:0 62:0 63:1 64:0 65:0 66:0 67:1 68:0 69:0 70:0 71:0 72:1 73:0 74:0 75:0 76:1 77:0 78:0 79:1 80:0 
-1 1:1 2:0 3:0 4:0 5:0 6:0 7:1 8:0 9:0 10:0 11:1 12:0 13:0 14:1 15:0 16:0 17:0 18:0 19:1 20:0 21:0 22:0 23:1 24:0 25:1 26:0 27:0 28:0 29:0 30:0 31:0 32:1 33:0 34:0 35:0 36:1 37:1 38:0 39:0 40:0 41:1 42:0 43:0 44:0 45:0 46:0 47:0 48:1 49:0 50:0 51:1 52:0 53:0 54:0 55:0 56:1 57:0 58:0 59:1 60:0 61:1 62:0 63:0 64:0 65:0 66:1 67:0 68:0 69:0 70:1 71:0 72:0 73:1 74:0 75:0 76:0 77:0 78:0 79:0 80:1 
-1 1:1 2:0 3:0 4:0 5:0 6:0 7:1 8:0 9:0 10:0 11:0 12:1 13:0 14:1 15:0 16:0 17:0 18:1 19:0 20:0 21:0 22:1 23:0 24:0 25:0 26:1 27:0 28:0 29:1 30:0 31:0 32:0 33:1 34:0 35:0 36:0 37:1 38:0 39:0 40:0 41:0 42:0 43:1 44:0 45:0 46:0 47:0 48:1 49:1 50:0 51:0 52:0 53:0 54:0 55:1 56:0 57:1 58:0 59:0 60:0 61:0 62:1 63:0 64:0 65:0 66:1 67:0 68:0 69:1 70:0 71:0 72:0 73:0 74:1 75:0 76:0 77:0 78:0 79:0 80:1 
-1 1:1 2:0 3:0 4:0 5:1 6:0 7:0 8:0 9:0 10:1 11:0 12:0 13:0 14:0 15:0 16:1 17:0 18:0 19:1 20:0 21:0 22:0 23:0 24:1 25:0 26:1 27:0 28:0 29:0 30:0 31:1 32:0 33:0 34:1 35:0 36:0 37:1 38:0 39:0 40:0 41:0 42:0 43:1 44:0 45:0 46:0 47:0 48:1 49:1 50:0 51:0 52:0 53:0 54:1 55:0 56:0 57:0 58:0 59:0 60:1 61:0 62:0 63:0 64:1 65:1 66:0 67:0 68:0 69:0 70:0 71:1 72:0 73:0 74:0 75:0 76:1 77:1 78:0 79:0 80:0 
-1 1:1 2:0 3:0 4:0 5:0 6:1 7:0 8:0 9:0 10:0 11:1 12:0 13:1 14:0 15:0 16:0 17:0 18:1 19:0 20:0 21:0 22:0 23:0 24:1 25:0 26:0 27:0 28:1 29:0 30:1 31:0 32:0 33:1 34:0 35:0 36:0 37:0 38:0 39:0 40:1 41:0 42:0 43:1 44:0 45:0 46:0 47:0 48:1 49:1 50:0 51:0 52:0 53:0 54:1 55:0 56:0 57:0 58:1 59:0 60:0 61:0 62:0 63:1 64:0 65:0 66:0 67:1 68:0 69:0 70:0 71:0 72:1 73:1 74:0 75:0 76:0 77:0 78:0 79:1 80:0 
-1 1:0 2:0 3:0 4:1 5:0 6:1 7:0 8:0 9:1 10:0 11:0 12:0 13:0 14:0 15:0 16:1 17:0 18:1 19:0 20:0 21:0 22:0 23:1 24:0 25:1 26:0 27:0 28:0 29:0 30:1 31:0 32:0 33:0 34:1 35:0 36:0 37:1 38:0 39:0 40:0 41:0 42:1 43:0 44:0 45:1 46:0 47:0 48:0 49:0 50:1 51:0 52:0 53:0 54:1 55:0 56:0 57:1 58:0 59:0 60:0 61:0 62:1 63:0 64:0 65:0 66:0 67:0 68:1 69:0 70:0 71:1 72:0 73:0 74:0 75:0 76:1 77:1 78:0 79:0 80:0 
-0.4254351709319106 1:0 2:0 3:0 4:1 5:1 6:0 7:0 8:0 9:0 10:0 11:1 12:0 13:0 14:0 15:1 16:0 17:0 18:0 19:0 20:1 21:0 22:0 23:1 24:0 25:1 26:0 27:0 28:0 29:0 30:0 31:0 32:1 33:1 34:0 35:0 36:0 37:0 38:0 39:1 40:0 41:0 42:0 43:0 44:1 45:1 46:0 47:0 48:0 49:0 50:1 51:0 52:0 53:1 54:0 55:0 56:0 57:1 58:0 59:0 60:0 61:0 62:1 63:0 64:0 65:1 66:0 67:0 68:0 69:1 70:0 71:0 72:0 73:0 74:0 75:1 76:0 77:0 78:0 79:1 80:0 
-0.3484743893743168 1:0 2:0 3:0 4:1 5:0 6:0 7:0 8:1 9:0 10:0 11:0 12:1 13:0 14:1 15:0 16:0 17:1 18:0 19:0 20:0 21:0 22:0 23:1 24:0 25:0 26:0 27:0 28:1 29:0 30:0 31:1 32:0 33:0 34:0 35:0 36:1 37:0 38:1 39:0 40:0 41:0 42:0 43:0 44:1 45:0 46:1 47:0 48:0 49:0 50:1 51:0 52:0 53:0 54:1 55:0 56:0 57:0 58:1 59:0 60:0 61:0 62:1 63:0 64:0 65:0 66:0 67:0 68:1 69:0 70:1 71:0 72:0 73:0 74:1 75:0 76:0 77:1 78:0 79:0 80:0 
-0.7389989217819778 1:1 2:0 3:0 4:0 5:0 6:0 7:0 8:1 9:0 10:1 11:0 12:0 13:0 14:0 15:1 16:0 17:1 18:0 19:0 20:0 21:0 22:0 23:0 24:1 25:0 26:0 27:1 28:0 29:0 30:1 31:0 32:0 33:1 34:0 35:0 36:0 37:0 38:0 39:0 40:1 41:0 42:1 43:0 44:0 45:0 46:0 47:1 48:0 49:0 50:0 51:0 52:1 53:0 54:1 55:0 56:0 57:0 58:1 59:0 60:0 61:0 62:1 63:0 64:0 65:0 66:1 67:0 68:0 69:0 70:0 71:1 72:0 73:0 74:0 75:0 76:1 77:0 78:0 79:0 80:1 
-1 1:0 2:1 3:0 4:0 5:1 6:0 7:0 8:0 9:1 10:0 11:0 12:0 13:1 14:0 15:0 16:0 17:0 18:1 19:0 20:0 21:0 22:0 23:0 24:1 25:0 26:0 27:1 28:0 29:0 30:0 31:0 32:1 33:0 34:0 35:1 36:0 37:0 38:0 39:0 40:1 41:1 42:0 43:0 44:0 45:0 46:0 47:0 48:1 49:0 50:0 51:0 52:1 53:0 54:0 55:0 56:1 57:0 58:0 59:0 60:1 61:1 62:0 63:0 64:0 65:0 66:0 67:1 68:0 69:0 70:0 71:1 72:0 73:0 74:0 75:0 76:1 77:0 78:0 79:0 80:1 
-0.6381163701262006 1:0 2:0 3:1 4:0 5:0 6:0 7:0 8:1 9:1 10:0 11:0 12:0 13:1 14:0 15:0 16:0 17:0 18:1 19:0 20:0 21:0 22:0 23:0 24:1 25:1 26:0 27:0 28:0 29:0 30:0 31:0 32:1 33:0 34:1 35:0 36:0 37:1 38:0 39:0 40:0 41:1 42:0 43:0 44:0 45:0 46:1 47:0 48:0 49:0 50:1 51:0 52:0 53:0 54:0 55:0 56:1 57:1 58:0 59:0 60:0 61:0 62:0 63:0 64:1 65:0 66:0 67:0 68:1 69:0 70:0 71:0 72:1 73:0 74:1 75:0 76:0 77:1 78:0 79:0 80:0 
-1 1:0 2:0 3:1 4:0 5:0 6:1 7:0 8:0 9:0 10:1 11:0 12:0 13:1 14:0 15:0 16:0 17:1 18:0 19:0 20:0 21:0 22:0 23:0 24:1 25:0 26:1 27:0 28:0 29:1 30:0 31:0 32:0 33:0 34:0 35:0 36:1 37:0 38:0 39:1 40:0 41:0 42:0 43:1 44:0 45:0 46:1 47:0 48:0 49:1 50:0 51:0 52:0 53:0 54:1 55:0 56:0 57:0 58:0 59:0 60:1 61:1 62:0 63:0 64:0 65:0 66:0 67:0 68:1 69:1 70:0 71:0 72:0 73:0 74:0 75:0 76:1 77:1 78:0 79:0 80:0 
-1 1:0 2:0 3:0 4:1 5:0 6:1 7:0 8:0 9:1 10:0 11:0 12:0 13:0 14:0 15:0 16:1 17:0 18:1 19:0 20:0 21:0 22:0 23:1 24:0 25:0 26:0 27:1 28:0 29:0 30:1 31:0 32:0 33:1 34:0 35:0 36:0 37:0 38:1 39:0 40:0 41:0 42:0 43:0 44:1 45:0 46:1 47:0 48:0 49:1 50:0 51:0 52:0 53:0 54:0 55:0 56:1 57:0 58:0 59:1 60:0 61:0 62:0 63:1 64:0 65:0 66:1 67:0 68:0 69:1 70:0 71:0 72:0 73:0 74:0 75:1 76:0 77:0 78:0 79:0 80:1 
-1 1:0 2:0 3:0 4:1 5:1 6:0 7:0 8:0 9:1 10:0 11:0 12:0 13:0 14:1 15:0 16:0 17:0 18:0 19:1 20:0 21:1 22:0 23:0 24:0 25:0 26:0 27:0 28:1 29:0 30:1 31:0 32:0 33:0 34:0 35:1 36:0 37:0 38:1 39:0 40:0 41:1 42:0 43:0 44:0 45:0 46:0 47:0 48:1 49:1 50:0 51:0 52:0 53:0 54:0 55:0 56:1 57:0 58:0 59:0 60:1 61:0 62:0 63:0 64:1 65:0 66:0 67:1 68:0 69:0 70:0 71:1 72:0 73:0 74:0 75:1 76:0 77:0 78:0 79:0 80:1 
-1 1:0 2:1 3:0 4:0 5:0 6:1 7:0 8:0 9:1 10:0 11:0 12:0 13:0 14:0 15:0 16:1 17:1 18:0 19:0 20:0 21:0 22:1 23:0 24:0 25:0 26:0 27:0 28:1 29:0 30:0 31:0 32:1 33:0 34:0 35:0 36:1 37:0 38:1 39:0 40:0 41:0 42:0 43:0 44:1 45:0 46:1 47:0 48:0 49:1 50:0 51:0 52:0 53:0 54:0 55:0 56:1 57:0 58:1 59:0 60:0 61:1 62:0 63:0 64:0 65:0 66:0 67:0 68:1 69:0 70:0 71:1 72:0 73:0 74:0 75:0 76:1 77:0 78:0 79:0 80:1 
-1 1:0 2:1 3:0 4:0 5:0 6:0 7:0 8:1 9:1 10:0 11:0 12:0 13:0 14:0 15:0 16:1 17:1 18:0 19:0 20:0 21:1 22:0 23:0 24:0 25:0 26:0 27:1 28:0 29:0 30:0 31:0 32:1 33:0 34:0 35:1 36:0 37:0 38:1 39:0 40:0 41:1 42:0 43:0 44:0 45:0 46:1 47:0 48:0 49:0 50:0 51:1 52:0 53:0 54:0 55:0 56:1 57:0 58:1 59:0 60:0 61:0 62:0 63:1 64:0 65:0 66:0 67:0 68:1 69:0 70:1 71:0 72:0 73:0 74:0 75:1 76:0 77:0 78:0 79:1 80:0 
-0.9110849045934194 1:0 2:1 3:0 4:0 5:1 6:0 7:0 8:0 9:0 10:1 11:0 12:0 13:0 14:1 15:0 16:0 17:0 18:0 19:0 20:1 21:1 22:0 23:0 24:0 25:0 26:0 27:0 28:1 29:0 30:1 31:0 32:0 33:0 34:1 35:0 36:0 37:0 38:0 39:1 40:0 41:0 42:0 43:1 44:0 45:0 46:0 47:1 48:0 49:0 50:0 51:0 52:1 53:1 54:0 55:0 56:0 57:0 58:0 59:1 60:0 61:0 62:0 63:0 64:1 65:0 66:0 67:0 68:1 69:0 70:1 71:0 72:0 73:1 74:0 75:0 76:0 77:0 78:0 79:0 80:1 
-0.4246772749231104 1:1 2:0 3:0 4:0 5:0 6:0 7:0 8:1 9:0 10:0 11:0 12:1 13:0 14:0 15:1 16:0 17:0 18:0 19:1 20:0 21:0 22:1 23:0 24:0 25:0 26:0 27:1 28:0 29:0 30:1 31:0 32:0 33:1 34:0 35:0 36:0 37:1 38:0 39:0 40:0 41:0 42:0 43:1 44:0 45:0 46:1 47:0 48:0 49:0 50:0 51:0 52:1 53:0 54:0 55:1 56:0 57:0 58:0 59:0 60:1 61:0 62:0 63:0 64:1 65:0 66:0 67:0 68:1 69:1 70:0 71:0 72:0 73:0 74:0 75:1 76:0 77:0 78:1 79:0 80:0 
-0.5185128892535384 1:0 2:0 3:0 4:1 5:1 6:0 7:0 8:0 9:1 10:0 11:0 12:0 13:1 14:0 15:0 16:0 17:0 18:1 19:0 20:0 21:0 22:1 23:0 24:0 25:0 26:0 27:0 28:1 29:0 30:0 31:0 32:1 33:1 34:0 35:0 36:0 37:0 38:0 39:1 40:0 41:0 42:1 43:0 44:0 45:1 46:0 47:0 48:0 49:0 50:1 51:0 52:0 53:0 54:0 55:0 56:1 57:1 58:0 59:0 60:0 61:0 62:0 63:0 64:1 65:0 66:0 67:0 68:1 69:0 70:1 71:0 72:0 73:0 74:0 75:0 76:1 77:1 78:0 79:0 80:0 
-0.2381851342236952 1:0 2:0 3:0 4:1 5:0 6:0 7:0 8:1 9:0 10:0 11:0 12:1 13:0 14:1 15:0 16:0 17:0 18:0 19:1 20:0 21:0 22:1 23:0 24:0 25:0 26:0 27:1 28:0 29:0 30:1 31:0 32:0 33:1 34:0 35:0 36:0 37:0 38:0 39:0 40:1 41:0 42:1 43:0 44:0 45:0 46:0 47:0 48:1 49:0 50:1 51:0 52:0 53:1 54:0 55:0 56:0 57:0 58:0 59:1 60:0 61:0 62:0 63:1 64:0 65:0 66:1 67:0 68:0 69:0 70:1 71:0 72:0 73:0 74:0 75:1 76:0 77:0 78:0 79:0 80:1 
-0.6786528567566629 1:0 2:0 3:0 4:1 5:0 6:1 7:0 8:0 9:0 10:1 11:0 12:0 13:0 14:1 15:0 16:0 17:0 18:1 19:0 20:0 21:0 22:1 23:0 24:0 25:0 26:0 27:1 28:0 29:0 30:0 31:0 32:1 33:1 34:0 35:0 36:0 37:0 38:0 39:0 40:1 41:0 42:1 43:0 44:0 45:0 46:0 47:0 48:1 49:1 50:0 51:0 52:0 53:0 54:0 55:0 56:1 57:0 58:1 59:0 60:0 61:0 62:1 63:0 64:0 65:1 66:0 67:0 68:0 69:0 70:1 71:0 72:0 73:0 74:0 75:1 76:0 77:0 78:0 79:0 80:1 
-1 1:1 2:0 3:0 4:0 5:0 6:0 7:1 8:0 9:0 10:0 11:0 12:1 13:0 14:0 15:0 16:1 17:0 18:0 19:1 20:0 21:0 22:1 23:0 24:0 25:1 26:0 27:0 28:0 29:1 30:0 31:0 32:0 33:1 34:0 35:0 36:0 37:0 38:0 39:0 40:1 41:1 42:0 43:0 44:0 45:0 46:0 47:1 48:0 49:0 50:1 51:0 52:0 53:0 54:1 55:0 56:0 57:1 58:0 59:0 60:0 61:0 62:0 63:0 64:1 65:0 66:0 67:1 68:0 69:0 70:1 71:0 72:0 73:1 74:0 75:0 76:0 77:0 78:1 79:0 80:0 
-0.05874818028074141 1:0 2:0 3:0 4:1 5:0 6:0 7:0 8:1 9:1 10:0 11:0 12:0 13:0 14:0 15:0 16:1 17:0 18:1 19:0 20:0 21:0 22:0 23:1 24:0 25:0 26:0 27:0 28:1 29:0 30:1 31:0 32:0 33:1 34:0 35:0 36:0 37:0 38:1 39:0 40:0 41:0 42:1 43:0 44:0 45:1 46:0 47:0 48:0 49:0 50:1 51:0 52:0 53:0 54:1 55:0 56:0 57:0 58:0 59:1 60:0 61:0 62:1 63:0 64:0 65:0 66:1 67:0 68:0 69:0 70:0 71:1 72:0 73:0 74:0 75:0 76:1 77:1 78:0 79:0 80:0 
-0.3823976210719022 1:1 2:0 3:0 4:0 5:1 6:0 7:0 8:0 9:0 10:0 11:1 12:0 13:0 14:1 15:0 16:0 17:0 18:0 19:1 20:0 21:0 22:0 23:1 24:0 25:0 26:0 27:0 28:1 29:1 30:0 31:0 32:0 33:0 34:1 35:0 36:0 37:0 38:1 39:0 40:0 41:1 42:0 43:0 44:0 45:0 46:0 47:1 48:0 49:1 50:0 51:0 52:0 53:1 54:0 55:0 56:0 57:0 58:0 59:1 60:0 61:0 62:0 63:1 64:0 65:0 66:0 67:0 68:1 69:0 70:0 71:0 72:1 73:0 74:1 75:0 76:0 77:0 78:0 79:1 80:0 
-0.5272896453702065 1:0 2:0 3:1 4:0 5:0 6:1 7:0 8:0 9:0 10:0 11:1 12:0 13:0 14:0 15:1 16:0 17:0 18:0 19:0 20:1 21:1 22:0 23:0 24:0 25:0 26:0 27:0 28:1 29:0 30:0 31:0 32:1 33:0 34:0 35:0 36:1 37:1 38:0 39:0 40:0 41:1 42:0 43:0 44:0 45:0 46:0 47:0 48:1 49:0 50:0 51:1 52:0 53:0 54:0 55:0 56:1 57:0 58:1 59:0 60:0 61:0 62:0 63:0 64:1 65:0 66:1 67:0 68:0 69:0 70:1 71:0 72:0 73:0 74:0 75:0 76:1 77:1 78:0 79:0 80:0 
-0.8010105398750157 1:1 2:0 3:0 4:0 5:0 6:0 7:1 8:0 9:0 10:1 11:0 12:0 13:0 14:1 15:0 16:0 17:0 18:0 19:1 20:0 21:0 22:0 23:1 24:0 25:0 26:0 27:1 28:0 29:0 30:0 31:0 32:1 33:0 34:1 35:0 36:0 37:0 38:1 39:0 40:0 41:0 42:0 43:0 44:1 45:0 46:0 47:1 48:0 49:0 50:1 51:0 52:0 53:1 54:0 55:0 56:0 57:1 58:0 59:0 60:0 61:0 62:0 63:1 64:0 65:0 66:0 67:1 68:0 69:0 70:0 71:0 72:1 73:0 74:0 75:1 76:0 77:0 78:1 79:0 80:0 
-0.4985831987784092 1:0 2:0 3:1 4:0 5:0 6:0 7:1 8:0 9:0 10:0 11:0 12:1 13:0 14:1 15:0 16:0 17:1 18:0 19:0 20:0 21:1 22:0 23:0 24:0 25:0 26:0 27:1 28:0 29:1 30:0 31:0 32:0 33:0 34:0 35:0 36:1 37:1 38:0 39:0 40:0 41:0 42:1 43:0 44:0 45:0 46:0 47:1 48:0 49:0 50:0 51:1 52:0 53:0 54:0 55:1 56:0 57:0 58:0 59:1 60:0 61:0 62:0 63:0 64:1 65:0 66:0 67:0 68:1 69:0 70:0 71:0 72:1 73:0 74:0 75:0 76:1 77:0 78:1 79:0 80:0 
